{"learner":{"attributes":{"best_iteration":"149","best_ntree_limit":"150","scikit_learn":"{\"use_label_encoder\": null, \"n_estimators\": 150, \"objective\": \"binary:logistic\", \"max_depth\": 5, \"max_leaves\": null, \"max_bin\": null, \"grow_policy\": null, \"learning_rate\": 0.1, \"verbosity\": null, \"booster\": \"gbtree\", \"tree_method\": null, \"gamma\": null, \"min_child_weight\": 1, \"max_delta_step\": null, \"subsample\": null, \"sampling_method\": null, \"colsample_bytree\": 0.5, \"colsample_bylevel\": 0.5, \"colsample_bynode\": null, \"reg_alpha\": null, \"reg_lambda\": null, \"scale_pos_weight\": null, \"base_score\": null, \"missing\": NaN, \"num_parallel_tree\": null, \"random_state\": null, \"n_jobs\": null, \"monotone_constraints\": null, \"interaction_constraints\": null, \"importance_type\": null, \"gpu_id\": null, \"validate_parameters\": null, \"predictor\": null, \"enable_categorical\": false, \"feature_types\": null, \"max_cat_to_onehot\": null, \"max_cat_threshold\": null, \"eval_metric\": null, \"early_stopping_rounds\": null, \"callbacks\": null, \"classes_\": [0, 1], \"n_classes_\": 2, \"_estimator_type\": \"classifier\"}"},"feature_names":[],"feature_types":[],"gradient_booster":{"model":{"gbtree_model_param":{"num_parallel_tree":"1","num_trees":"150","size_leaf_vector":"0"},"tree_info":[0,0,0,0,0,0,0,0,0,0,0,0,0,0,0,0,0,0,0,0,0,0,0,0,0,0,0,0,0,0,0,0,0,0,0,0,0,0,0,0,0,0,0,0,0,0,0,0,0,0,0,0,0,0,0,0,0,0,0,0,0,0,0,0,0,0,0,0,0,0,0,0,0,0,0,0,0,0,0,0,0,0,0,0,0,0,0,0,0,0,0,0,0,0,0,0,0,0,0,0,0,0,0,0,0,0,0,0,0,0,0,0,0,0,0,0,0,0,0,0,0,0,0,0,0,0,0,0,0,0,0,0,0,0,0,0,0,0,0,0,0,0,0,0,0,0,0,0,0,0],"trees":[{"base_weights":[-1.3915067E0,-1.4755958E0,-1.2545259E0,-1.4491355E0,-1.535665E0,-1.2235543E0,-1.4468787E0,-1.5661815E0,-1.1587983E0,-1.6423787E0,-1.339395E0,-1.4721493E0,-1.0460327E0,-1.4544163E0,-0E0,-1.6569641E0,-1.4871409E0,-1.2735542E0,-9.74916E-1,-1.6907274E0,-1.5086662E0,-1.3984684E0,-1.099631E0,-1.5500677E0,-1.3812585E0,-1.1982623E0,-8.7038577E-1,-1.5709091E0,-1.2335815E0,-1.4666667E0,1.4666667E0,-1.6406691E0,-1.7191157E0,-1.2256025E0,-1.3055938E0,-1.6951373E0,-4.516129E-1,-1.5337325E0,-1.0588236E0,-1.3852011E0,-1.8545455E0,-1.0757576E0,-1.75E0,-1.4890392E0,-1.6488068E0,-1.3250148E0,-1.4850367E0,-1.1415162E0,-1.310796E0,-8.4315574E-1,-9.4470775E-1,-1.529887E0,-1.9136691E0,-1.1919483E0,-1.8222222E0],"categories":[],"categories_nodes":[],"categories_segments":[],"categories_sizes":[],"default_left":[1,1,1,1,1,1,1,1,1,1,1,1,1,1,1,1,0,1,0,1,1,1,1,1,1,1,1,1,1,0,0,0,0,0,0,0,0,0,0,0,0,0,0,0,0,0,0,0,0,0,0,0,0,0,0],"id":0,"left_children":[1,3,5,7,9,11,13,15,17,19,21,23,25,27,29,31,-1,33,-1,35,37,39,41,43,45,47,49,51,53,-1,-1,-1,-1,-1,-1,-1,-1,-1,-1,-1,-1,-1,-1,-1,-1,-1,-1,-1,-1,-1,-1,-1,-1,-1,-1],"loss_changes":[2.308711E2,1.7664062E1,4.405371E1,2.9398828E2,7.759375E1,2.9111426E2,1.1573975E1,4.2029297E1,5.161255E1,1.3375E1,1.7543945E1,1.7407227E1,1.0249609E2,2.5222168E1,1.6133333E1,9.375E-2,0E0,7.644043E-1,0E0,9.075684E0,5.857666E0,3.949463E0,2.3251038E0,6.451172E0,5.522461E0,1.1733887E1,2.8493652E0,6.7390137E0,6.8771973E0,0E0,0E0,0E0,0E0,0E0,0E0,0E0,0E0,0E0,0E0,0E0,0E0,0E0,0E0,0E0,0E0,0E0,0E0,0E0,0E0,0E0,0E0,0E0,0E0,0E0,0E0],"parents":[2147483647,0,0,1,1,2,2,3,3,4,4,5,5,6,6,7,7,8,8,9,9,10,10,11,11,12,12,13,13,14,14,15,15,17,17,19,19,20,20,21,21,22,22,23,23,24,24,25,25,26,26,27,27,28,28],"right_children":[2,4,6,8,10,12,14,16,18,20,22,24,26,28,30,32,-1,34,-1,36,38,40,42,44,46,48,50,52,54,-1,-1,-1,-1,-1,-1,-1,-1,-1,-1,-1,-1,-1,-1,-1,-1,-1,-1,-1,-1,-1,-1,-1,-1,-1,-1],"split_conditions":[7.810538E-1,-2.3769942E-1,1.336118E0,-3.7068796E-1,-1.24965414E-1,-2.478267E-1,1.0254417E1,1.0058007E0,9.977324E-1,1.0889161E0,1.0088875E0,-8.2223904E-1,-8.216709E-1,-8.195455E-1,-8.786247E-1,-6.4334154E-1,-1.487141E-1,-6.4334154E-1,-9.74916E-2,3.959147E0,1.336118E0,2.9099355E0,9.467508E0,-2.3769942E-1,-2.3769942E-1,2.869064E-1,2.869064E-1,5.0083585E0,5.0083585E0,-1.4666668E-1,1.4666668E-1,-1.6406691E-1,-1.7191158E-1,-1.22560255E-1,-1.3055938E-1,-1.6951373E-1,-4.516129E-2,-1.5337326E-1,-1.0588236E-1,-1.385201E-1,-1.8545455E-1,-1.0757577E-1,-1.75E-1,-1.4890392E-1,-1.6488068E-1,-1.3250148E-1,-1.4850368E-1,-1.1415162E-1,-1.310796E-1,-8.4315576E-2,-9.447078E-2,-1.529887E-1,-1.9136691E-1,-1.1919483E-1,-1.8222223E-1],"split_indices":[8,13,13,11,11,11,13,1,1,1,1,1,1,1,1,8,0,8,0,13,13,13,13,13,13,13,13,13,13,0,0,0,0,0,0,0,0,0,0,0,0,0,0,0,0,0,0,0,0,0,0,0,0,0,0],"split_type":[0,0,0,0,0,0,0,0,0,0,0,0,0,0,0,0,0,0,0,0,0,0,0,0,0,0,0,0,0,0,0,0,0,0,0,0,0,0,0,0,0,0,0,0,0,0,0,0,0,0,0,0,0,0,0],"sum_hessian":[2.0203E4,1.251225E4,7.69075E3,8.7035E3,3.80875E3,6.6305E3,1.06025E3,6.19975E3,2.50375E3,2.4625E3,1.34625E3,2.75925E3,3.87125E3,1.05475E3,5.5E0,2.87625E3,3.3235E3,1.538E3,9.6575E2,1.8E3,6.625E2,1.07625E3,2.7E2,1.477E3,1.28225E3,2.07075E3,1.8005E3,6.865E2,3.6825E2,2.75E0,2.75E0,2.3005E3,5.7575E2,6.3175E2,9.0625E2,1.79325E3,6.75E0,6.2525E2,3.725E1,1.04975E3,2.65E1,2.63E2,7E0,9.2275E2,5.5425E2,8.405E2,4.4175E2,1.384E3,6.8675E2,1.32675E3,4.7375E2,6.18E2,6.85E1,3.4675E2,2.15E1],"tree_param":{"num_deleted":"0","num_feature":"14","num_nodes":"55","size_leaf_vector":"0"}},{"base_weights":[-1.2590458E0,-1.173255E0,-1.3333887E0,-1.2130024E0,-1.0920937E0,-1.3152337E0,-1.3665698E0,-1.1820272E0,-1.5725878E0,-1.0998198E0,-8.4129506E-1,-1.3190546E0,-1.1058022E0,-1.4241503E0,-1.3362983E0,-1.6837386E0,-1.1411339E0,-1.7375048E0,-1.260409E0,-1.0048211E0,-1.3101331E0,1.11516215E-1,-1.2121904E0,-1.5483813E0,-1.3039498E0,-1.3561604E0,-9.9589527E-1,-1.7897515E0,-1.3982027E0,-1.3386539E0,1.0962546E-1,-1.1304998E0,-1.3395619E0,-1.2699524E0,-3.6429814E-1,-6.307777E-1,-1.0449028E0,-1.429254E0,-1.269607E0,2.6983654E-1,-9.0590864E-1,-6.395503E-1,-1.5533696E0,-1.332079E0,-1.2903683E0,-1.0653347E0,-3.9590332E-1,-1.4129846E0,-1.1415104E0,-1.2900182E0,-1.3938657E0,2.3467124E-1,-1.4742832E-1],"categories":[],"categories_nodes":[],"categories_segments":[],"categories_sizes":[],"default_left":[1,1,1,1,1,1,1,1,1,1,1,1,1,1,1,0,1,0,1,1,1,1,0,1,1,0,1,0,1,1,1,0,0,0,0,0,0,0,0,0,0,0,0,0,0,0,0,0,0,0,0,0,0],"id":1,"left_children":[1,3,5,7,9,11,13,15,17,19,21,23,25,27,29,-1,31,-1,33,35,37,39,-1,41,43,-1,45,-1,47,49,51,-1,-1,-1,-1,-1,-1,-1,-1,-1,-1,-1,-1,-1,-1,-1,-1,-1,-1,-1,-1,-1,-1],"loss_changes":[1.266543E2,2.8811523E1,4.685547E0,6.788281E1,5.0446777E0,4.1289062E0,4.6865234E0,1.1643799E2,2.3220947E1,5.833423E1,3.4177338E1,2.1717773E1,2.2624207E0,9.71167E0,8.64209E0,0E0,9.747559E0,0E0,1.0275574E0,3.0238525E1,2.6540527E0,4.739634E0,0E0,9.0234375E-1,7.4121094E-1,0E0,3.5367432E0,0E0,2.9660645E0,4.8881836E0,1.9470024E-1,0E0,0E0,0E0,0E0,0E0,0E0,0E0,0E0,0E0,0E0,0E0,0E0,0E0,0E0,0E0,0E0,0E0,0E0,0E0,0E0,0E0,0E0],"parents":[2147483647,0,0,1,1,2,2,3,3,4,4,5,5,6,6,7,7,8,8,9,9,10,10,11,11,12,12,13,13,14,14,16,16,18,18,19,19,20,20,21,21,23,23,24,24,26,26,28,28,29,29,30,30],"right_children":[2,4,6,8,10,12,14,16,18,20,22,24,26,28,30,-1,32,-1,34,36,38,40,-1,42,44,-1,46,-1,48,50,52,-1,-1,-1,-1,-1,-1,-1,-1,-1,-1,-1,-1,-1,-1,-1,-1,-1,-1,-1,-1,-1,-1],"split_conditions":[-7.840186E-1,9.015542E-1,4.2350245E-1,6.709646E-1,1.6721519E0,3.897576E-1,9.071784E-1,-4.2813247E-1,-4.2317605E-1,2.2649935E-1,1.7291031E0,-3.8050902E-1,-2.657483E-1,-4.0300366E-1,6.360471E-1,-1.6837387E-1,9.9177665E-1,-1.7375049E-1,1.9280796E0,-9.191234E-1,-7.368799E-1,1.7559823E-1,-1.2121904E-1,-1.619622E0,-2.2893322E-1,-1.3561605E-1,1.472823E0,-1.7897515E-1,1.9284319E0,-5.6033146E-1,1.1738671E-1,-1.13049984E-1,-1.339562E-1,-1.2699525E-1,-3.6429815E-2,-6.307777E-2,-1.0449028E-1,-1.4292541E-1,-1.269607E-1,2.6983654E-2,-9.0590864E-2,-6.395503E-2,-1.5533696E-1,-1.332079E-1,-1.2903683E-1,-1.0653347E-1,-3.9590333E-2,-1.4129846E-1,-1.1415104E-1,-1.2900183E-1,-1.3938658E-1,2.3467124E-2,-1.4742832E-2],"split_indices":[1,9,9,9,10,9,9,4,4,4,10,4,4,4,4,0,5,0,5,10,10,5,0,10,3,0,10,0,10,10,10,0,0,0,0,0,0,0,0,0,0,0,0,0,0,0,0,0,0,0,0,0,0],"split_type":[0,0,0,0,0,0,0,0,0,0,0,0,0,0,0,0,0,0,0,0,0,0,0,0,0,0,0,0,0,0,0,0,0,0,0,0,0,0,0,0,0,0,0,0,0,0,0,0,0,0,0,0,0],"sum_hessian":[2.0102426E4,9.3404375E3,1.0761988E4,6.2605054E3,3.079932E3,6.9822886E3,3.7796997E3,5.7679346E3,4.92571E2,2.9846025E3,9.532937E1,6.851983E3,1.3030582E2,1.286516E3,2.4931838E3,4.316713E2,5.336263E3,3.193173E2,1.7325372E2,2.059915E3,9.2468744E2,2.6906715E1,6.842265E1,4.171496E2,6.4348335E3,3.6293423E1,9.40124E1,8.075207E1,1.2057639E3,2.489203E3,3.9808848E0,5.0711875E3,2.6507568E2,1.7101526E2,2.2384622E0,2.0099179E2,1.8589233E3,2.2603185E2,6.9865564E2,2.3919424E1,2.98729E0,2.9824357E0,4.1416714E2,2.0636453E3,4.371188E3,8.356547E1,1.0446932E1,1.1358499E3,6.9913956E1,1.3363699E3,1.1528331E3,2.7366796E0,1.2442052E0],"tree_param":{"num_deleted":"0","num_feature":"14","num_nodes":"53","size_leaf_vector":"0"}},{"base_weights":[-1.1485586E0,-1.2917862E0,-9.421691E-1,-1.753311E0,5.86339E-1,-1.7883421E0,4.6836606E-1,-1.4665077E0,2.3153422E0,-1.1159068E0,2.2480059E0,-1.468057E0,-7.323423E-2,-1.0216367E0,-1.1732844E0,-1.547697E0,-1.4370823E0,-1.2085993E0,-8.511665E-1,-1.3672578E0,-1.0896566E0],"categories":[],"categories_nodes":[],"categories_segments":[],"categories_sizes":[],"default_left":[1,1,1,0,1,0,1,1,0,1,0,1,0,1,1,0,0,0,0,0,0],"id":2,"left_children":[1,3,5,-1,7,-1,9,11,-1,13,-1,15,-1,17,19,-1,-1,-1,-1,-1,-1],"loss_changes":[5.855293E2,1.0155336E4,9.710633E3,0E0,8.208196E3,0E0,8.605028E3,2.1750488E0,0E0,7.5360107E0,0E0,3.8134766E-1,0E0,1.8691284E1,1.4684814E1,0E0,0E0,0E0,0E0,0E0,0E0],"parents":[2147483647,0,0,1,1,2,2,4,4,6,6,7,7,9,9,11,11,13,13,14,14],"right_children":[2,4,6,-1,8,-1,10,12,-1,14,-1,16,-1,18,20,-1,-1,-1,-1,-1,-1],"split_conditions":[-2.478267E-1,3.178448E-1,3.178448E-1,-1.753311E-1,-1.0164256E0,-1.7883421E-1,-1.0164167E0,1.7557268E1,2.3153423E-1,8.6175597E-1,2.2480059E-1,-6.164105E-1,-7.323423E-3,2.436184E-1,1.2075713E-1,-1.547697E-1,-1.4370823E-1,-1.20859936E-1,-8.511665E-2,-1.3672578E-1,-1.0896566E-1],"split_indices":[11,2,2,0,1,0,1,4,0,4,0,11,0,11,11,0,0,0,0,0,0],"split_type":[0,0,0,0,0,0,0,0,0,0,0,0,0,0,0,0,0,0,0,0,0],"sum_hessian":[1.9847863E4,1.1713687E4,8.1341772E3,9.40307E3,2.3106162E3,5.084027E3,3.0501504E3,1.0564474E3,1.2541688E3,1.6138447E3,1.4363055E3,1.0552202E3,1.2271392E0,6.177322E2,9.9611255E2,2.8177512E2,7.734451E2,2.9171027E2,3.260219E2,2.9545667E2,7.006559E2],"tree_param":{"num_deleted":"0","num_feature":"14","num_nodes":"21","size_leaf_vector":"0"}},{"base_weights":[-1.0603931E0,-1.130249E0,-9.473826E-1,-1.1823123E0,-1.067889E0,-1.0547463E0,-8.1851965E-1,-1.2806658E0,-1.157111E0,-1.0098975E0,-1.200994E0,-7.66604E-1,-1.0680782E0,-5.2909756E-1,-1.0301485E0,-1.3817514E0,-1.0291544E0,-1.279064E0,-9.7252315E-1,-1.13148E0,-6.683089E-1,-1.3475785E0,-1.08941E0,-8.619344E-1,-4.1821322E-1,-1.1914678E0,-9.5558643E-1,-9.5681113E-1,-3.7975535E-1,-1.2156011E0,-9.6439123E-1,-1.5003169E0,-1.304266E0,4.604835E-1,-1.0533513E0,-1.3503689E0,-1.1875552E0,-1.0748175E0,-8.60357E-1,-1.227308E0,-1.0091113E0,-7.783713E-1,-4.114665E-1,-1.0588237E0,-1.4803531E0,-8.991261E-1,7.6576364E-1,-7.7312285E-1,5.2586492E-2,-1.3455784E0,-1.1443965E0,-1.0242552E0,-8.6442834E-1,-9.644309E-1,7.215411E-1,-7.745629E-1,-3.3073115E-1,-1.1313815E0,-1.3091233E0,-8.6867416E-1,-1.1805701E0],"categories":[],"categories_nodes":[],"categories_segments":[],"categories_sizes":[],"default_left":[1,1,1,1,1,1,1,1,1,1,1,1,1,1,1,1,1,1,1,1,1,0,1,1,1,1,1,1,1,1,1,0,0,0,0,0,0,0,0,0,0,0,0,0,0,0,0,0,0,0,0,0,0,0,0,0,0,0,0,0,0],"id":3,"left_children":[1,3,5,7,9,11,13,15,17,19,21,23,25,27,29,31,33,35,37,39,41,-1,43,45,47,49,51,53,55,57,59,-1,-1,-1,-1,-1,-1,-1,-1,-1,-1,-1,-1,-1,-1,-1,-1,-1,-1,-1,-1,-1,-1,-1,-1,-1,-1,-1,-1,-1,-1],"loss_changes":[1.5202539E2,3.763086E1,1.0171533E2,1.4676758E1,4.094043E1,1.4705078E1,2.0612671E2,3.2147705E1,1.1581299E2,1.5748096E2,2.5552002E1,5.692444E0,5.243701E1,9.080185E1,2.2583252E1,6.6690674E0,1.4270599E1,1.8807129E1,2.2860107E1,3.1694824E1,2.8021545E1,0E0,9.710815E0,9.293983E0,6.9077163E0,1.1783936E1,1.1785034E1,5.411194E0,2.0250946E1,2.5049438E0,2.8831543E1,0E0,0E0,0E0,0E0,0E0,0E0,0E0,0E0,0E0,0E0,0E0,0E0,0E0,0E0,0E0,0E0,0E0,0E0,0E0,0E0,0E0,0E0,0E0,0E0,0E0,0E0,0E0,0E0,0E0,0E0],"parents":[2147483647,0,0,1,1,2,2,3,3,4,4,5,5,6,6,7,7,8,8,9,9,10,10,11,11,12,12,13,13,14,14,15,15,16,16,17,17,18,18,19,19,20,20,22,22,23,23,24,24,25,25,26,26,27,27,28,28,29,29,30,30],"right_children":[2,4,6,8,10,12,14,16,18,20,22,24,26,28,30,32,34,36,38,40,42,-1,44,46,48,50,52,54,56,58,60,-1,-1,-1,-1,-1,-1,-1,-1,-1,-1,-1,-1,-1,-1,-1,-1,-1,-1,-1,-1,-1,-1,-1,-1,-1,-1,-1,-1,-1,-1],"split_conditions":[7.810538E-1,1.0085607E0,-8.2195765E-1,-1.1058447E0,1.1369026E0,-9.5195496E-1,-7.987118E-1,2.436184E-1,-3.7068796E-1,-3.7068796E-1,-6.164105E-1,1.4722311E0,-2.1041408E-3,-3.7068796E-1,-4.9354923E-1,-4.9354923E-1,-1.6280138E0,-6.164105E-1,1.2075713E-1,-6.164105E-1,1.2075713E-1,-1.3475786E-1,1.1756947E0,-9.521365E-1,-9.5443326E-1,-6.164105E-1,-8.6713696E-1,-7.98774E-1,-8.1994724E-1,-7.8132176E-1,-7.782378E-1,-1.5003169E-1,-1.304266E-1,4.604835E-2,-1.0533513E-1,-1.3503689E-1,-1.1875552E-1,-1.07481755E-1,-8.60357E-2,-1.2273081E-1,-1.0091113E-1,-7.783713E-2,-4.114665E-2,-1.0588237E-1,-1.4803532E-1,-8.9912616E-2,7.657637E-2,-7.731228E-2,5.258649E-3,-1.3455784E-1,-1.1443966E-1,-1.02425516E-1,-8.6442836E-2,-9.6443094E-2,7.215411E-2,-7.745629E-2,-3.3073116E-2,-1.13138154E-1,-1.3091233E-1,-8.6867414E-2,-1.1805701E-1],"split_indices":[8,1,1,1,1,1,1,11,11,11,11,11,11,11,11,11,1,11,11,11,11,0,1,1,1,11,1,1,1,1,1,0,0,0,0,0,0,0,0,0,0,0,0,0,0,0,0,0,0,0,0,0,0,0,0,0,0,0,0,0,0],"split_type":[0,0,0,0,0,0,0,0,0,0,0,0,0,0,0,0,0,0,0,0,0,0,0,0,0,0,0,0,0,0,0,0,0,0,0,0,0,0,0,0,0,0,0,0,0,0,0,0,0,0,0,0,0,0,0,0,0,0,0,0,0],"sum_hessian":[1.9391742E4,1.1978426E4,7.4133164E3,6.5183926E3,5.460033E3,4.0400876E3,3.3732288E3,1.3193811E3,5.1990117E3,3.809074E3,1.6509594E3,1.8124991E2,3.858838E3,1.4262289E3,1.9469999E3,9.3792365E2,3.8145746E2,3.1270867E3,2.071925E3,2.8074854E3,1.0015885E3,7.087802E2,9.421792E2,1.4115227E2,4.009765E1,1.8357051E3,2.0231327E3,3.677092E2,1.0585197E3,5.0507373E2,1.4419261E3,3.6343896E2,5.744847E2,5.8089604E0,3.756485E2,1.749837E3,1.3772496E3,1.0791595E3,9.927654E2,1.5694246E3,1.2380608E3,6.997154E2,3.0187314E2,8.7725354E2,6.492561E1,1.3843669E2,2.715568E0,2.2496584E1,1.7601067E1,4.2305215E2,1.412653E3,1.1480665E3,8.750662E2,3.6647076E2,1.2384223E0,1.1528587E2,9.432338E2,2.7264548E2,2.3242825E2,1.00289496E3,4.3903125E2],"tree_param":{"num_deleted":"0","num_feature":"14","num_nodes":"61","size_leaf_vector":"0"}},{"base_weights":[-9.7802293E-1,-1.045182E0,-8.7009305E-1,-1.5652026E0,1.5485572E-2,-1.5933551E0,2.0864089E0,2.9843593E-1,-4.4697484E-1,-1.1760674E0,3.4830534E-1,-6.1093664E-1,5.736497E-2,2.1521525E0,-1.0226362E0,2.1385722E0,-1.1523994E0,2.151042E0,-9.5466506E-1],"categories":[],"categories_nodes":[],"categories_segments":[],"categories_sizes":[],"default_left":[1,1,1,0,1,0,0,1,1,0,1,1,1,0,0,0,0,0,0],"id":4,"left_children":[1,3,5,-1,7,-1,-1,9,11,-1,13,15,17,-1,-1,-1,-1,-1,-1],"loss_changes":[1.3645703E2,6.4406914E3,1.5559734E4,0E0,5.0294128E2,0E0,0E0,1.7575142E2,1.2068216E2,0E0,5.708098E3,1.641768E3,7.62436E2,0E0,0E0,0E0,0E0,0E0,0E0],"parents":[2147483647,0,0,1,1,2,2,4,4,7,7,8,8,10,10,11,11,12,12],"right_children":[2,4,6,-1,8,-1,-1,10,12,-1,14,16,18,-1,-1,-1,-1,-1,-1],"split_conditions":[7.810538E-1,7.838911E-1,-1.4820147E-1,-1.5652026E-1,-2.3769942E-1,-1.5933551E-1,2.0864089E-1,-5.578343E0,-1.1873141E-1,-1.1760674E-1,-2.8724274E-1,-6.4334154E-1,-6.4334154E-1,2.1521525E-1,-1.0226362E-1,2.1385722E-1,-1.1523994E-1,2.151042E-1,-9.546651E-2],"split_indices":[8,2,2,0,13,0,0,6,7,0,8,8,8,0,0,0,0,0,0],"split_type":[0,0,0,0,0,0,0,0,0,0,0,0,0,0,0,0,0,0,0],"sum_hessian":[1.8950035E4,1.1675993E4,7.2740415E3,7.8344634E3,3.8415303E3,5.84469E3,1.4293512E3,2.3835444E3,1.4579857E3,7.723817E1,2.3063062E3,1.1001226E3,3.5786325E2,9.9566614E2,1.3106401E3,1.8051758E2,9.196049E2,1.1624706E2,2.4161618E2],"tree_param":{"num_deleted":"0","num_feature":"14","num_nodes":"19","size_leaf_vector":"0"}},{"base_weights":[-9.1755E-1,-1.0445253E0,-7.391503E-1,-1.1465838E0,-9.633778E-1,-6.2537646E-1,-8.2736224E-1,-1.3867828E0,-1.1359868E0,-1.1222733E0,-9.205959E-1,-7.5833845E-1,-5.501983E-1,-9.1157186E-1,-7.104084E-1,-4.8604074E-1,-1.3957248E0,-1.1376443E0,1.3358755E0,-1.2832018E0,-1.0622854E0,-8.754813E-1,-1.0271274E0,-8.856016E-1,-7.064063E-1,-3.217918E-1,-6.4945966E-1,-8.5928446E-1,-1.0500714E0,-2.9632196E-1,-8.4310293E-1,-1.1387321E0,-2.0691364E-1,-1.3012092E0,-8.201806E-1,-1.0369793E0,-1.3386668E0,-9.411649E-1,-8.05582E-1,-1.0151088E0,-1.2742127E0,-9.772954E-1,-7.786946E-1,-8.981914E-1,-6.0168463E-1,7.5597787E-1,-4.0269747E-1,-6.815997E-1,-4.002609E-1,-1.0181925E0,-7.6758736E-1,-1.0593504E0,1.4516196E-1,7.25373E-1,-3.9739227E-1,-8.4827274E-1,-1.09090045E-1],"categories":[],"categories_nodes":[],"categories_segments":[],"categories_sizes":[],"default_left":[1,1,1,1,1,1,1,1,1,1,1,1,1,1,1,0,0,1,0,1,1,1,1,1,1,1,1,1,1,1,1,0,0,0,0,0,0,0,0,0,0,0,0,0,0,0,0,0,0,0,0,0,0,0,0,0,0],"id":5,"left_children":[1,3,5,7,9,11,13,15,17,19,21,23,25,27,29,-1,-1,31,-1,33,35,37,39,41,43,45,47,49,51,53,55,-1,-1,-1,-1,-1,-1,-1,-1,-1,-1,-1,-1,-1,-1,-1,-1,-1,-1,-1,-1,-1,-1,-1,-1,-1,-1],"loss_changes":[4.123789E2,8.711914E1,7.562891E1,1.0421387E1,3.9350098E1,3.274475E1,4.1411865E1,8.8916016E-1,2.0036621E1,1.0758179E1,2.1621826E1,7.276428E0,4.7922363E1,1.705249E1,9.822864E1,0E0,0E0,4.3374023E0,0E0,1.7355347E0,5.0495605E0,1.4386719E1,2.8291016E0,2.5970154E0,1.6612701E1,5.6554955E1,1.1571716E1,2.552478E1,7.6398315E0,4.536148E1,5.055908E0,0E0,0E0,0E0,0E0,0E0,0E0,0E0,0E0,0E0,0E0,0E0,0E0,0E0,0E0,0E0,0E0,0E0,0E0,0E0,0E0,0E0,0E0,0E0,0E0,0E0,0E0],"parents":[2147483647,0,0,1,1,2,2,3,3,4,4,5,5,6,6,7,7,8,8,9,9,10,10,11,11,12,12,13,13,14,14,17,17,19,19,20,20,21,21,22,22,23,23,24,24,25,25,26,26,27,27,28,28,29,29,30,30],"right_children":[2,4,6,8,10,12,14,16,18,20,22,24,26,28,30,-1,-1,32,-1,34,36,38,40,42,44,46,48,50,52,54,56,-1,-1,-1,-1,-1,-1,-1,-1,-1,-1,-1,-1,-1,-1,-1,-1,-1,-1,-1,-1,-1,-1,-1,-1,-1,-1],"split_conditions":[-2.478267E-1,-6.164105E-1,-2.3769942E-1,-1.0900041E0,-8.569472E-1,-8.541245E-1,-8.216105E-1,-1.4830807E0,3.696844E0,-1.1234915E0,-2.3769942E-1,-1.0994303E0,-7.988757E-1,1.336118E0,-8.094004E-1,-4.8604075E-2,-1.3957249E-1,2.9099355E0,1.3358755E-1,1.9082751E0,8.1151223E-1,-4.9354923E-1,1.7058063E0,2.436184E-1,1.2075713E-1,-1.0725186E0,8.5792476E-1,3.6647967E-1,1.0254417E1,-9.769082E-1,3.3151503E0,-1.13873206E-1,-2.0691363E-2,-1.3012092E-1,-8.201806E-2,-1.0369793E-1,-1.3386668E-1,-9.4116494E-2,-8.05582E-2,-1.0151088E-1,-1.2742127E-1,-9.772954E-2,-7.786947E-2,-8.981914E-2,-6.0168464E-2,7.5597785E-2,-4.0269747E-2,-6.815997E-2,-4.002609E-2,-1.01819254E-1,-7.6758735E-2,-1.0593504E-1,1.4516196E-2,7.25373E-2,-3.973923E-2,-8.4827274E-2,-1.0909005E-2],"split_indices":[11,11,13,1,1,1,1,9,13,1,13,1,1,13,1,0,0,13,0,9,13,11,9,11,11,9,11,11,13,9,11,0,0,0,0,0,0,0,0,0,0,0,0,0,0,0,0,0,0,0,0,0,0,0,0,0,0],"split_type":[0,0,0,0,0,0,0,0,0,0,0,0,0,0,0,0,0,0,0,0,0,0,0,0,0,0,0,0,0,0,0,0,0,0,0,0,0,0,0,0,0,0,0,0,0,0,0,0,0,0,0,0,0,0,0,0,0],"sum_hessian":[1.8237822E4,1.0651681E4,7.586142E3,4.7121357E3,5.939545E3,3.316579E3,4.269563E3,1.936161E2,4.5185195E3,1.2546039E3,4.684941E3,1.1946328E3,2.1219463E3,2.4783188E3,1.7912441E3,2.4473505E0,1.9116875E2,4.5160312E3,2.488449E0,3.3513937E2,9.1946454E2,3.2976506E3,1.3872904E3,3.4156134E2,8.530715E2,6.440921E2,1.4778541E3,1.8043362E3,6.7398267E2,4.354894E2,1.3557548E3,4.510536E3,5.494943E0,3.2085083E2,1.428852E1,8.4669135E2,7.27732E1,1.6936667E3,1.6039838E3,1.3278124E3,5.9478096E1,1.794801E2,1.6208124E2,2.9861578E2,5.5445575E2,4.4391743E1,5.997003E2,1.3074878E3,1.7036629E2,6.565145E2,1.1478217E3,6.689034E2,5.079261E0,3.8646328E1,3.968431E2,1.346118E3,9.636651E0],"tree_param":{"num_deleted":"0","num_feature":"14","num_nodes":"57","size_leaf_vector":"0"}},{"base_weights":[-8.5098445E-1,-1.4501257E0,6.224437E-1,-1.4304746E0,-1.4759681E0,7.3930055E-1,4.5567557E-1,6.1377245E-1,8.997015E-1,1.3832013E-1,5.4786533E-1,1.9380653E0,2.9147375E-1,1.9390137E0,4.8605683E-1,1.9087142E0,-3.298626E-1,1.9534088E0,-3.217547E-1,1.9927851E0,-8.735557E-1,1.9883516E0,-8.8150626E-1,1.6564356E0,-1.0180857E0,1.627811E0,-9.270373E-1],"categories":[],"categories_nodes":[],"categories_segments":[],"categories_sizes":[],"default_left":[1,1,1,0,0,1,1,1,1,1,1,0,1,0,1,0,1,0,1,0,0,0,0,0,0,0,0],"id":6,"left_children":[1,3,5,-1,-1,7,9,11,13,15,17,-1,19,-1,21,-1,23,-1,25,-1,-1,-1,-1,-1,-1,-1,-1],"loss_changes":[1.5653181E4,4.2929688E0,9.956299E1,0E0,0E0,6.0105347E1,6.1793243E1,7.220966E2,5.667151E2,3.962962E2,2.0031294E3,0E0,2.7031257E3,0E0,1.9449729E3,0E0,5.189305E2,0E0,1.1968584E3,0E0,0E0,0E0,0E0,0E0,0E0,0E0,0E0],"parents":[2147483647,0,0,1,1,2,2,5,5,6,6,7,7,8,8,9,9,10,10,12,12,14,14,16,16,18,18],"right_children":[2,4,6,-1,-1,8,10,12,14,16,18,-1,20,-1,22,-1,24,-1,26,-1,-1,-1,-1,-1,-1,-1,-1],"split_conditions":[3.178448E-1,-3.7068796E-1,-2.3769942E-1,-1.4304747E-1,-1.4759682E-1,-6.2258744E-1,-6.9570124E-1,1.2499373E0,1.2499373E0,1.2499373E0,1.2499373E0,1.9380653E-1,9.528598E-2,1.9390137E-1,1.3686743E-1,1.9087142E-1,1.7083466E-1,1.9534089E-1,1.719438E-1,1.9927852E-1,-8.735558E-2,1.9883516E-1,-8.815063E-2,1.6564356E-1,-1.0180857E-1,1.627811E-1,-9.270373E-2],"split_indices":[2,11,13,0,0,9,9,2,2,2,2,0,4,0,4,0,4,0,4,0,0,0,0,0,0,0,0],"split_type":[0,0,0,0,0,0,0,0,0,0,0,0,0,0,0,0,0,0,0,0,0,0,0,0,0,0,0],"sum_hessian":[1.7729436E4,1.2604197E4,5.1252393E3,7.191784E3,5.4124126E3,3.0115608E3,2.1136785E3,1.692138E3,1.3194227E3,4.7635782E2,1.6373206E3,3.3023254E2,1.3619054E3,3.7457877E2,9.44844E2,9.898341E1,3.7737442E2,6.253454E2,1.01197516E3,5.5326013E2,8.0864526E2,4.5002682E2,4.9481717E2,9.674614E1,2.8062827E2,2.3935216E2,7.7262305E2],"tree_param":{"num_deleted":"0","num_feature":"14","num_nodes":"27","size_leaf_vector":"0"}},{"base_weights":[-8.066555E-1,-1.2300755E0,-7.867302E-1,-1.1688173E0,-1.2922829E0,-8.6443484E-1,-6.4657813E-1,-1.3718272E0,1.7931916E0,-1.3819407E0,1.6842492E0,-1.3794986E0,1.00401506E-1,-1.4058007E0,1.7781539E0,1.7232251E0,-8.4948164E-1,1.749455E0,6.756028E-1,-9.9906546E-1,-6.341132E-1],"categories":[],"categories_nodes":[],"categories_segments":[],"categories_sizes":[],"default_left":[1,1,1,1,1,1,1,0,0,0,0,0,1,0,0,1,1,0,0,0,0],"id":7,"left_children":[1,3,5,7,9,11,13,-1,-1,-1,-1,-1,15,-1,-1,17,19,-1,-1,-1,-1],"loss_changes":[1.4160938E2,1.3770752E0,1.7524219E2,2.3832715E2,1.0013281E2,5.159498E3,1.0609319E4,0E0,0E0,0E0,0E0,0E0,5.5728496E3,0E0,0E0,3.5496338E1,7.283423E1,0E0,0E0,0E0,0E0],"parents":[2147483647,0,0,1,1,2,2,3,3,4,4,5,5,6,6,12,12,15,15,16,16],"right_children":[2,4,6,8,10,12,14,-1,-1,-1,-1,-1,16,-1,-1,18,20,-1,-1,-1,-1],"split_conditions":[-4.268847E-1,-1.1873141E-1,7.810538E-1,-1.4820147E-1,3.178448E-1,7.838911E-1,-1.4820147E-1,-1.3718273E-1,1.7931916E-1,-1.3819407E-1,1.6842492E-1,-1.3794987E-1,1.6553162E-1,-1.4058007E-1,1.778154E-1,1.3493698E0,1.2075713E-1,1.749455E-1,6.756028E-2,-9.990655E-2,-6.341132E-2],"split_indices":[4,7,8,2,2,2,2,0,0,0,0,0,4,0,0,11,11,0,0,0,0],"split_type":[0,0,0,0,0,0,0,0,0,0,0,0,0,0,0,0,0,0,0,0,0],"sum_hessian":[1.6898467E4,7.5674164E2,1.6141726E4,3.9125058E2,3.6549106E2,1.0381003E4,5.760723E3,3.6665747E2,2.4593088E1,3.5532385E2,1.0167193E1,6.767723E3,3.6132798E3,4.3873833E3,1.3733398E3,1.3337782E3,2.2795015E3,1.3005458E3,3.3232468E1,1.3430497E3,9.3645184E2],"tree_param":{"num_deleted":"0","num_feature":"14","num_nodes":"21","size_leaf_vector":"0"}},{"base_weights":[-7.6944286E-1,-8.7455577E-1,-5.881272E-1,-8.9378417E-1,-8.18319E-1,-5.310856E-1,-6.9875336E-1,-8.858111E-1,-1.1735239E0,-5.196056E-1,-8.275803E-1,-4.838138E-1,-5.7782906E-1,-7.0508665E-1,3.8666114E-1,-9.934715E-1,-7.978226E-1,-9.1871256E-1,-1.2301959E0,-7.703262E-1,-2.319506E-1,-9.488789E-1,-7.825907E-1,-5.946651E-1,-4.360264E-1,-5.272903E-1,-7.880439E-1,-6.303502E-1,-8.4254044E-1,1.6247175E0,-5.943313E-1,-8.4507746E-1,-7.597694E-1,-9.294768E-1,-6.5046173E-1,-3.1653997E-1,-3.7783995E-2,-8.3631885E-1,-7.3377234E-1,-5.0095713E-1,-7.058261E-1,-5.1220053E-1,-3.738558E-1,-6.4155376E-1,-4.506835E-1,-8.47885E-1,2.9333143E-2,-7.733423E-1,-5.77565E-1,-4.5610914E-1,-8.557397E-1,7.9760104E-1,1.9616842E0,-1.0683052E-1,-9.141932E-1],"categories":[],"categories_nodes":[],"categories_segments":[],"categories_sizes":[],"default_left":[1,1,1,1,1,1,1,1,1,1,1,1,1,1,1,0,1,0,0,1,1,0,1,1,1,1,1,1,1,1,1,0,0,0,0,0,0,0,0,0,0,0,0,0,0,0,0,0,0,0,0,0,0,0,0],"id":8,"left_children":[1,3,5,7,9,11,13,15,17,19,21,23,25,27,29,-1,31,-1,-1,33,35,-1,37,39,41,43,45,47,49,51,53,-1,-1,-1,-1,-1,-1,-1,-1,-1,-1,-1,-1,-1,-1,-1,-1,-1,-1,-1,-1,-1,-1,-1,-1],"loss_changes":[3.0459863E2,1.0225098E1,3.6721436E1,1.5777344E1,6.744751E0,8.299316E0,1.3997742E1,6.868848E1,1.8425598E0,5.63986E0,1.2975952E1,9.99881E0,2.0269531E1,1.9864136E1,1.5817125E1,0E0,6.624756E0,0E0,0E0,2.0950699E-1,6.2862873E-1,0E0,4.2109375E0,5.6941833E0,6.234497E0,1.3476959E1,1.8383926E1,9.290588E0,3.1612854E0,1.667118E-2,1.0803437E0,0E0,0E0,0E0,0E0,0E0,0E0,0E0,0E0,0E0,0E0,0E0,0E0,0E0,0E0,0E0,0E0,0E0,0E0,0E0,0E0,0E0,0E0,0E0,0E0],"parents":[2147483647,0,0,1,1,2,2,3,3,4,4,5,5,6,6,7,7,8,8,9,9,10,10,11,11,12,12,13,13,14,14,16,16,19,19,20,20,22,22,23,23,24,24,25,25,26,26,27,27,28,28,29,29,30,30],"right_children":[2,4,6,8,10,12,14,16,18,20,22,24,26,28,30,-1,32,-1,-1,34,36,-1,38,40,42,44,46,48,50,52,54,-1,-1,-1,-1,-1,-1,-1,-1,-1,-1,-1,-1,-1,-1,-1,-1,-1,-1,-1,-1,-1,-1,-1,-1],"split_conditions":[-1.24965414E-1,7.810538E-1,8.789286E-1,8.789286E-1,-1.1526229E0,-5.37551E-1,1.3494307E1,-6.164105E-1,-6.164105E-1,-4.9354923E-1,-6.164105E-1,1.2075713E-1,2.869064E-1,1.336118E0,1.336118E0,-9.934715E-2,-4.9354923E-1,-9.1871254E-2,-1.2301959E-1,-2.2893322E-1,8.789286E-1,-9.488789E-2,-2.2893322E-1,-2.1041408E-3,-2.2893322E-1,2.436184E-1,2.8237052E0,3.6647967E-1,-2.1041408E-3,1.1650779E0,-2.2893322E-1,-8.450775E-2,-7.597694E-2,-9.2947684E-2,-6.504618E-2,-3.1653997E-2,-3.7783997E-3,-8.363189E-2,-7.337724E-2,-5.0095715E-2,-7.058261E-2,-5.1220056E-2,-3.738558E-2,-6.415538E-2,-4.506835E-2,-8.47885E-2,2.9333143E-3,-7.733423E-2,-5.7756502E-2,-4.5610916E-2,-8.557397E-2,7.9760104E-2,1.9616842E-1,-1.0683052E-2,-9.1419324E-2],"split_indices":[11,8,12,12,10,10,5,11,11,11,11,11,13,13,13,0,11,0,0,3,12,0,3,11,3,11,11,11,11,11,3,0,0,0,0,0,0,0,0,0,0,0,0,0,0,0,0,0,0,0,0,0,0,0,0],"split_type":[0,0,0,0,0,0,0,0,0,0,0,0,0,0,0,0,0,0,0,0,0,0,0,0,0,0,0,0,0,0,0,0,0,0,0,0,0,0,0,0,0,0,0,0,0,0,0,0,0,0,0,0,0,0,0],"sum_hessian":[1.6008215E4,1.0131136E4,5.87708E3,7.5386377E3,2.592498E3,3.8814878E3,1.995592E3,7.3337773E3,2.0486009E2,7.967743E1,2.5128206E3,1.935481E3,1.946007E3,1.9843638E3,1.1228251E1,3.293565E3,4.0402126E3,4.0404156E1,1.6445593E2,4.1675247E1,3.800218E1,6.7441235E2,1.8384081E3,5.7958575E2,1.3558953E3,1.5716637E3,3.743432E2,1.2890604E3,6.953034E2,4.6736717E0,6.5545797E0,1.7927502E3,2.2474624E3,1.500195E1,2.6673298E1,2.6031298E1,1.1970879E1,8.6751416E2,9.70894E2,3.174686E2,2.6211713E2,6.060715E2,7.498237E2,6.278356E2,9.438281E2,3.487719E2,2.5571302E1,3.438739E2,9.4518646E2,2.4139275E1,6.711641E2,2.3275306E0,2.3461409E0,3.1253026E0,3.4292774E0],"tree_param":{"num_deleted":"0","num_feature":"14","num_nodes":"55","size_leaf_vector":"0"}},{"base_weights":[-7.1536046E-1,-8.322245E-1,-5.59151E-1,-1.1131976E0,-8.2054067E-1,-1.188909E0,-5.255944E-1,-8.0772316E-1,-9.795893E-1,-4.9968442E-1,-6.949338E-1,-9.203951E-1,-7.124909E-1,-9.9961436E-1,-6.414509E-1,-6.369255E-1,-4.0558788E-1,-9.3398523E-1,-6.351037E-1,-9.685473E-1,-8.532389E-1,-7.9262364E-1,-6.4987904E-1,-1.0260895E0,-8.9370024E-1,-9.615263E-1,-1.9466658E-1,-3.5107267E-1,-6.5226775E-1,-3.6007208E-1,-8.4845835E-1,-8.433394E-1,-1.0196177E0,-6.094244E-1,-1.3497298E0],"categories":[],"categories_nodes":[],"categories_segments":[],"categories_sizes":[],"default_left":[1,1,1,0,1,0,1,1,1,1,1,1,1,1,1,1,1,1,1,0,0,0,0,0,0,0,0,0,0,0,0,0,0,0,0],"id":9,"left_children":[1,3,5,-1,7,-1,9,11,13,15,17,19,21,23,25,27,29,31,33,-1,-1,-1,-1,-1,-1,-1,-1,-1,-1,-1,-1,-1,-1,-1,-1],"loss_changes":[2.8299756E2,2.8240723E1,1.3987012E2,0E0,1.6597168E1,0E0,2.7354736E1,8.4103516E1,3.6343994E0,7.050281E1,1.1353424E1,1.0863281E1,2.098584E1,7.4957275E-1,5.260557E0,9.537903E0,6.5276E1,4.215393E-1,1.14947815E1,0E0,0E0,0E0,0E0,0E0,0E0,0E0,0E0,0E0,0E0,0E0,0E0,0E0,0E0,0E0,0E0],"parents":[2147483647,0,0,1,1,2,2,4,4,6,6,7,7,8,8,9,9,10,10,11,11,12,12,13,13,14,14,15,15,16,16,17,17,18,18],"right_children":[2,4,6,-1,8,-1,10,12,14,16,18,20,22,24,26,28,30,32,34,-1,-1,-1,-1,-1,-1,-1,-1,-1,-1,-1,-1,-1,-1,-1,-1],"split_conditions":[-2.478267E-1,-4.2896432E-1,-4.2525566E-1,-1.1131976E-1,6.4928746E-1,-1.18890904E-1,8.6175597E-1,-6.164105E-1,1.6945579E0,-9.889482E-2,-2.1041408E-3,3.9869943E-1,4.4916153E-2,1.1113476E0,-4.9354923E-1,-2.0607395E0,1.2367353E0,3.8630795E-1,1.2929403E0,-9.685473E-2,-8.532389E-2,-7.926237E-2,-6.4987905E-2,-1.0260896E-1,-8.937003E-2,-9.6152626E-2,-1.9466659E-2,-3.5107266E-2,-6.522678E-2,-3.6007207E-2,-8.484583E-2,-8.433394E-2,-1.0196177E-1,-6.094244E-2,-1.3497297E-1],"split_indices":[11,4,4,0,4,0,4,11,9,0,11,0,0,0,11,0,0,0,0,0,0,0,0,0,0,0,0,0,0,0,0,0,0,0,0],"split_type":[0,0,0,0,0,0,0,0,0,0,0,0,0,0,0,0,0,0,0,0,0,0,0,0,0,0,0,0,0,0,0,0,0,0,0],"sum_hessian":[1.5526755E4,8.879479E3,6.647277E3,3.5073367E2,8.528744E3,3.3453918E2,6.312738E3,7.898308E3,6.304364E2,5.478452E3,8.342856E2,3.613917E3,4.284391E3,5.933416E2,3.7094803E1,2.2260132E3,3.252439E3,1.6408243E2,6.702032E2,2.0969456E3,1.5169716E3,1.8741431E3,2.410248E3,4.6773477E2,1.25606834E2,2.094077E1,1.6154032E1,1.1460469E2,2.1114084E3,2.9509678E3,3.014713E2,8.497784E1,7.910458E1,6.48744E2,2.1459154E1],"tree_param":{"num_deleted":"0","num_feature":"14","num_nodes":"35","size_leaf_vector":"0"}},{"base_weights":[-6.6526055E-1,-7.493649E-1,-6.119216E-1,-6.928205E-1,-7.725165E-1,-5.4355097E-1,-7.8299975E-1,-6.8377984E-1,-1.1287148E0,-7.73657E-1,2.1983707E-1,-6.58673E-1,-4.4391832E-1,-7.5909585E-1,-1.0251187E0,-6.8544734E-1,9.866869E-1,-7.505409E-1,-1.2039009E0,-8.6974317E-1,-7.659771E-1,-8.8136756E-1,1.1035248E0,-5.961417E-1,-7.509639E-1,4.645948E-1,-4.6514162E-1,-7.60408E-1,-1.1693301E-1,-8.93317E-1,-1.0696445E0,-7.0806015E-1,-5.656948E-1,-1.0709916E0,-2.432021E-2,-1.0556674E0,-8.2235205E-1,-7.43695E-1,-7.9502845E-1,-6.0117286E-1,3.115939E-1,-8.228843E-1,-6.3934124E-1,1.3425876E-1,9.2218286E-1,-4.081153E-1,-5.7955384E-1,-7.3541903E-1,-8.138073E-1,2.744655E-1,-6.1051166E-1,-4.1853175E-1,-9.681702E-1,-3.1375945E-1,-1.0735909E0],"categories":[],"categories_nodes":[],"categories_segments":[],"categories_sizes":[],"default_left":[1,1,1,1,1,1,1,1,1,1,1,1,1,1,1,1,0,1,0,1,1,0,0,1,1,1,1,1,1,1,1,0,0,0,0,0,0,0,0,0,0,0,0,0,0,0,0,0,0,0,0,0,0,0,0],"id":10,"left_children":[1,3,5,7,9,11,13,15,17,19,21,23,25,27,29,31,-1,33,-1,35,37,-1,-1,39,41,43,45,47,49,51,53,-1,-1,-1,-1,-1,-1,-1,-1,-1,-1,-1,-1,-1,-1,-1,-1,-1,-1,-1,-1,-1,-1,-1,-1],"loss_changes":[6.709375E1,7.109375E0,1.0741797E2,5.951294E0,4.849365E0,7.530188E1,1.44453125E1,5.3390503E0,3.8368225E-2,2.3811035E0,6.348984E0,1.7186157E1,6.839722E1,1.9313965E0,4.1477966E-1,4.1293945E0,0E0,1.8704972E0,0E0,1.7600403E0,1.8896484E0,0E0,0E0,8.528076E0,9.350464E0,1.2153061E1,2.2311218E1,2.5944824E0,1.3404882E0,1.9058762E0,1.6871643E-1,0E0,0E0,0E0,0E0,0E0,0E0,0E0,0E0,0E0,0E0,0E0,0E0,0E0,0E0,0E0,0E0,0E0,0E0,0E0,0E0,0E0,0E0,0E0,0E0],"parents":[2147483647,0,0,1,1,2,2,3,3,4,4,5,5,6,6,7,7,8,8,9,9,10,10,11,11,12,12,13,13,14,14,15,15,17,17,19,19,20,20,23,23,24,24,25,25,26,26,27,27,28,28,29,29,30,30],"right_children":[2,4,6,8,10,12,14,16,18,20,22,24,26,28,30,32,-1,34,-1,36,38,-1,-1,40,42,44,46,48,50,52,54,-1,-1,-1,-1,-1,-1,-1,-1,-1,-1,-1,-1,-1,-1,-1,-1,-1,-1,-1,-1,-1,-1,-1,-1],"split_conditions":[-9.909725E-2,-1.4103316E0,1.0333929E0,2.9099355E0,1.0254417E1,4.5947468E-1,1.3459122E0,-1.4105016E0,-1.9247866E0,-1.3168898E0,1.9853687E-1,2.6037937E-1,4.7186393E-1,1.3450801E0,1.3537624E0,8.789286E-1,9.866869E-2,-1.9794905E0,-1.20390095E-1,-7.084043E-1,-6.409124E-1,-8.8136755E-2,1.1035248E-1,2.5949994E-1,3.8116443E-1,4.6868855E-1,8.902644E-1,6.9259286E-1,-6.5714836E-1,-1.1981838E0,-1.665183E0,-7.080602E-2,-5.6569483E-2,-1.0709917E-1,-2.432021E-3,-1.0556674E-1,-8.223521E-2,-7.4369505E-2,-7.950284E-2,-6.0117286E-2,3.115939E-2,-8.228844E-2,-6.3934125E-2,1.3425876E-2,9.221829E-2,-4.081153E-2,-5.7955384E-2,-7.35419E-2,-8.138073E-2,2.7446551E-2,-6.1051168E-2,-4.1853175E-2,-9.6817024E-2,-3.1375945E-2,-1.0735909E-1],"split_indices":[0,0,0,13,13,0,0,0,0,0,9,0,0,0,0,12,0,0,0,10,0,0,0,0,0,0,0,10,10,10,10,0,0,0,0,0,0,0,0,0,0,0,0,0,0,0,0,0,0,0,0,0,0,0,0],"split_type":[0,0,0,0,0,0,0,0,0,0,0,0,0,0,0,0,0,0,0,0,0,0,0,0,0,0,0,0,0,0,0,0,0,0,0,0,0,0,0,0,0,0,0,0,0,0,0,0,0,0,0,0,0,0,0],"sum_hessian":[1.5057382E4,5.8383994E3,9.218983E3,1.705032E3,4.133367E3,6.589641E3,2.629342E3,1.6729038E3,3.21281E1,4.1288423E3,4.5248756E0,3.0545762E3,3.5350647E3,2.3968413E3,2.325006E2,1.6718246E3,1.0792077E0,7.1495385E0,2.4978563E1,2.9727545E2,3.831567E3,2.0156746E0,2.509201E0,1.8253069E3,1.2292694E3,8.021892E1,3.454846E3,2.39177E3,5.071476E0,6.402916E1,1.6847144E2,1.4021458E3,2.6967886E2,4.631226E0,2.5183122E0,5.6061226E1,2.4121423E2,2.1834722E3,1.6480947E3,1.8155815E3,9.725286E0,7.4371136E2,4.85558E2,4.7338398E1,3.288052E1,2.3086936E3,1.1461522E3,1.6393738E3,7.523961E2,3.0761082E0,1.9953679E0,9.617553E0,5.4411606E1,1.2931399E0,1.6717828E2],"tree_param":{"num_deleted":"0","num_feature":"14","num_nodes":"55","size_leaf_vector":"0"}},{"base_weights":[-6.1769074E-1,-5.57401E-1,-6.7771775E-1,-6.3971907E-1,-3.6567026E-1,-7.4794555E-1,-6.2134314E-1,-1.06361E0,-6.110149E-1,-1.0761756E0,-2.8101543E-1,-1.121141E0,-7.3906434E-1,-6.282496E-1,4.2858985E-1,-1.0928626E0,-7.1877015E-1,-7.7064496E-1,-5.0212157E-1,3.291173E-1,-1.0965884E0,-1.3502361E-1,-4.4802803E-1,-1.1396037E0,-3.311283E-1,-8.4886575E-1,-5.967495E-1,-7.4428505E-1,-4.4230953E-1,-9.021709E-1,7.418E-1,-1.0563058E0,-1.2175401E0,-9.815061E-1,1.4117473E0,-7.0912576E-1,-8.7523705E-1,-4.0732443E-1,-6.3860416E-1,-1.1058272E0,1.5057766E-1,5.8163065E-1,-2.054472E-1,-7.7543056E-1,-3.9854312E-1,-8.5233706E-1,1.2127181E0,-6.002546E-1,1.2316228E0,-8.058576E-1,-6.332909E-1,-5.3433335E-1,-2.797574E-1,2.5289777E-1,1.0221933E0],"categories":[],"categories_nodes":[],"categories_segments":[],"categories_sizes":[],"default_left":[1,1,1,1,1,1,1,1,1,1,1,1,1,1,1,1,1,1,1,0,1,1,1,0,0,1,1,1,1,0,1,0,0,0,0,0,0,0,0,0,0,0,0,0,0,0,0,0,0,0,0,0,0,0,0],"id":11,"left_children":[1,3,5,7,9,11,13,15,17,19,21,23,25,27,29,31,33,35,37,-1,39,41,43,-1,-1,45,47,49,51,-1,53,-1,-1,-1,-1,-1,-1,-1,-1,-1,-1,-1,-1,-1,-1,-1,-1,-1,-1,-1,-1,-1,-1,-1,-1],"loss_changes":[5.2543945E1,1.150022E2,2.8527588E1,6.1487305E1,1.3175116E2,9.963013E0,2.9768066E1,2.4680176E0,8.279431E1,7.0557556E0,4.7804855E1,6.9834137E-1,4.9235107E1,8.687683E1,1.1997782E1,6.02417E-2,1.713868E1,1.185376E1,3.6582703E1,0E0,2.8197937E0,5.3056942E1,1.451857E1,0E0,0E0,1.3875488E1,9.645355E0,1.6488281E1,2.3119843E1,0E0,2.832738E0,0E0,0E0,0E0,0E0,0E0,0E0,0E0,0E0,0E0,0E0,0E0,0E0,0E0,0E0,0E0,0E0,0E0,0E0,0E0,0E0,0E0,0E0,0E0,0E0],"parents":[2147483647,0,0,1,1,2,2,3,3,4,4,5,5,6,6,7,7,8,8,9,9,10,10,11,11,12,12,13,13,14,14,15,15,16,16,17,17,18,18,20,20,21,21,22,22,25,25,26,26,27,27,28,28,30,30],"right_children":[2,4,6,8,10,12,14,16,18,20,22,24,26,28,30,32,34,36,38,-1,40,42,44,-1,-1,46,48,50,52,-1,54,-1,-1,-1,-1,-1,-1,-1,-1,-1,-1,-1,-1,-1,-1,-1,-1,-1,-1,-1,-1,-1,-1,-1,-1],"split_conditions":[-7.783121E-1,-8.2160884E-1,1.0085607E0,-4.2896432E-1,-4.159667E-1,-4.1326314E-1,1.3700607E-1,-8.2528067E-1,-1.24965414E-1,-8.1956375E-1,-7.987118E-1,8.6344624E-1,-4.9354923E-1,-4.9354923E-1,-8.280017E-1,8.1151223E-1,3.4345412E0,-2.3769942E-1,2.869064E-1,3.291173E-2,2.9099355E0,-1.0725186E0,-6.164105E-1,-1.1396038E-1,-3.311283E-2,3.4345412E0,3.3151503E0,-6.164105E-1,-1.24965414E-1,-9.021709E-2,-2.3769942E-1,-1.0563058E-1,-1.2175401E-1,-9.815061E-2,1.4117473E-1,-7.091258E-2,-8.7523706E-2,-4.0732443E-2,-6.386042E-2,-1.10582724E-1,1.5057767E-2,5.8163065E-2,-2.054472E-2,-7.754306E-2,-3.9854314E-2,-8.523371E-2,1.2127181E-1,-6.002546E-2,1.23162284E-1,-8.058576E-2,-6.332909E-2,-5.3433336E-2,-2.7975742E-2,2.5289778E-2,1.02219336E-1],"split_indices":[1,1,1,4,4,4,4,1,11,1,1,10,11,11,10,13,13,13,13,0,13,9,11,0,0,13,11,11,11,0,13,0,0,0,0,0,0,0,0,0,0,0,0,0,0,0,0,0,0,0,0,0,0,0,0],"split_type":[0,0,0,0,0,0,0,0,0,0,0,0,0,0,0,0,0,0,0,0,0,0,0,0,0,0,0,0,0,0,0,0,0,0,0,0,0,0,0,0,0,0,0,0,0,0,0,0,0,0,0,0,0,0,0],"sum_hessian":[1.4622317E4,7.300328E3,7.3219893E3,5.10584E3,2.1944883E3,3.2549368E3,4.0670522E3,3.215327E2,4.784307E3,2.3238403E2,1.9621041E3,7.27488E1,3.182188E3,4.040873E3,2.6179316E1,2.943904E2,2.7142313E1,1.9376984E3,2.8466086E3,3.1106727E0,2.2927336E2,1.0479026E3,9.1420154E2,7.065506E1,2.0937386E0,1.7934819E3,1.3887062E3,2.4863003E3,1.5545728E3,4.6294417E0,2.1549875E1,2.3496751E2,5.9422894E1,2.4642681E1,2.4996307E0,1.2249713E3,7.127271E2,1.6821898E3,1.1644188E3,2.2769994E2,1.5734324E0,9.311131E1,9.5479126E2,1.1810751E2,7.9609406E2,1.7910527E3,2.429217E0,1.3867195E3,1.9867195E0,1.5951511E3,8.911492E2,9.911672E2,5.634055E2,8.547732E0,1.3002143E1],"tree_param":{"num_deleted":"0","num_feature":"14","num_nodes":"55","size_leaf_vector":"0"}},{"base_weights":[-5.738472E-1,-1.2572286E0,8.1493133E-1,-1.2734228E0,-1.2462229E0,-6.354948E-1,1.8764653E0,-7.8042877E-1,-4.9414545E-1,1.8116926E0,1.9385517E0,-6.9979423E-1,-9.9957967E-1,-4.621926E-1,-9.1754925E-1,1.8789442E0,1.7456385E0,5.404564E-1,-7.0648503E-1,-4.697487E-1,8.8744E-1,-7.003459E-1,-1.2620821E0],"categories":[],"categories_nodes":[],"categories_segments":[],"categories_sizes":[],"default_left":[1,1,1,0,0,1,1,1,1,1,0,1,0,1,1,0,0,0,0,0,0,0,0],"id":12,"left_children":[1,3,5,-1,-1,7,9,11,13,15,-1,17,-1,19,21,-1,-1,-1,-1,-1,-1,-1,-1],"loss_changes":[1.3473332E4,1.1035156E-1,7.2101357E3,0E0,0E0,4.016443E1,7.361328E0,1.6539917E1,1.316983E1,2.6660156E0,0E0,6.327484E0,0E0,9.965347E0,4.316536E0,0E0,0E0,0E0,0E0,0E0,0E0,0E0,0E0],"parents":[2147483647,0,0,1,1,2,2,5,5,6,6,7,7,8,8,9,9,11,11,13,13,14,14],"right_children":[2,4,6,-1,-1,8,10,12,14,16,-1,18,-1,20,22,-1,-1,-1,-1,-1,-1,-1,-1],"split_conditions":[3.178448E-1,-7.7816474E-1,-1.0164249E0,-1.2734228E-1,-1.24622285E-1,-1.1058447E0,-7.7822745E-1,5.1660633E-1,1.2894083E0,4.5471048E-1,1.9385517E-1,-1.6291708E0,-9.9957965E-2,1.2837081E0,-2.3769942E-1,1.8789442E-1,1.7456385E-1,5.4045644E-2,-7.064851E-2,-4.697487E-2,8.874401E-2,-7.0034586E-2,-1.2620822E-1],"split_indices":[2,1,1,0,0,1,1,0,0,0,0,1,0,0,13,0,0,0,0,0,0,0,0],"split_type":[0,0,0,0,0,0,0,0,0,0,0,0,0,0,0,0,0,0,0,0,0,0,0],"sum_hessian":[1.419434E4,9.513226E3,4.6811143E3,3.8028708E3,5.7103545E3,1.9783705E3,2.7027437E3,9.745673E2,1.0038032E3,1.3375243E3,1.3652194E3,7.154992E2,2.5906808E2,9.353102E2,6.849309E1,6.491547E2,6.8836957E2,3.4111269E0,7.120881E2,9.3075116E2,4.559001E0,4.3869343E1,2.4623743E1],"tree_param":{"num_deleted":"0","num_feature":"14","num_nodes":"23","size_leaf_vector":"0"}},{"base_weights":[-5.5153674E-1,-1.2269416E0,7.537624E-1,1.682744E0,3.53303E-1,-2.0177959E-2,6.4898366E-1,-2.8734422E-1,2.1303454E-1,7.271951E-1,-3.3574492E-1,-6.757163E-1,1.7631625E0,-6.4663035E-1,1.767272E0,-4.8171073E-1,1.773962E0,-6.942325E-1,1.6670988E0],"categories":[],"categories_nodes":[],"categories_segments":[],"categories_sizes":[],"default_left":[1,0,1,0,1,1,1,1,1,1,1,0,0,0,0,0,0,0,0],"id":13,"left_children":[1,-1,3,-1,5,7,9,11,13,15,17,-1,-1,-1,-1,-1,-1,-1,-1],"loss_changes":[1.1786904E4,0E0,1.6955415E3,0E0,3.519761E2,8.78684E1,1.3724957E2,5.2459906E2,1.0072799E3,2.0867085E3,9.5628105E1,0E0,0E0,0E0,0E0,0E0,0E0,0E0,0E0],"parents":[2147483647,0,0,2,2,4,4,5,5,6,6,7,7,8,8,9,9,10,10],"right_children":[2,-1,4,-1,6,8,10,12,14,16,18,-1,-1,-1,-1,-1,-1,-1,-1],"split_conditions":[3.178448E-1,-1.2269416E-1,1.2499373E0,1.682744E-1,-1.1873141E-1,-2.2893322E-1,1.8296552E-1,-1.5344724E-1,-1.5381116E-1,-1.5380019E-1,-1.5335181E-1,-6.757163E-2,1.7631625E-1,-6.466304E-2,1.767272E-1,-4.8171073E-2,1.7739621E-1,-6.942325E-2,1.6670989E-1],"split_indices":[2,0,2,0,7,3,5,1,1,1,1,0,0,0,0,0,0,0,0],"split_type":[0,0,0,0,0,0,0,0,0,0,0,0,0,0,0,0,0,0,0],"sum_hessian":[1.3367771E4,8.809504E3,4.558268E3,1.3720947E3,3.1861733E3,1.4082776E3,1.7778956E3,6.562505E2,7.520271E2,1.6473197E3,1.3057585E2,5.523115E2,1.0393897E2,4.8458313E2,2.67444E2,7.647053E2,8.8261444E2,1.1130655E2,1.9269306E1],"tree_param":{"num_deleted":"0","num_feature":"14","num_nodes":"19","size_leaf_vector":"0"}},{"base_weights":[-5.3187495E-1,-6.064921E-1,-4.8568264E-1,-9.033124E-1,-6.0375446E-1,-4.6313602E-1,-5.192476E-1,-1.9887273E-1,-9.16954E-1,-5.4964167E-1,-6.261405E-1,-4.0269434E-1,-6.298058E-1,-4.6024218E-1,-6.822289E-1,-8.0722064E-1,-1.1426212E0,-5.514079E-1,9.559055E-1,-7.305139E-1,-6.179863E-1,-4.9265948E-1,-3.2772705E-1,-6.070006E-1,-9.373634E-1,-5.643704E-1,-3.7881327E-1,-6.583976E-1,-9.117184E-1,-9.502288E-1,-5.428017E-2,-4.8303142E-1,-6.096313E-1,-7.4029785E-1,5.9201753E-1,-1.0561148E0,-6.026105E-1,-1.0396453E0,-4.740168E-1,-9.737939E-1,-3.0177423E-1,-1.048812E0,-5.8567315E-1,3.2234776E-1,-9.5774835E-1,-5.195036E-1,-7.6638883E-1,-7.816912E-1,-3.3051887E-1,-1.0673655E0,-6.30172E-1,-7.476381E-1,-1.1522857E0],"categories":[],"categories_nodes":[],"categories_segments":[],"categories_sizes":[],"default_left":[1,1,1,1,1,1,1,0,1,1,1,1,1,1,1,1,0,1,0,1,1,1,1,1,1,1,1,1,1,0,0,0,0,0,0,0,0,0,0,0,0,0,0,0,0,0,0,0,0,0,0,0,0],"id":14,"left_children":[1,3,5,7,9,11,13,-1,15,17,19,21,23,25,27,29,-1,31,-1,33,35,37,39,41,43,45,47,49,51,-1,-1,-1,-1,-1,-1,-1,-1,-1,-1,-1,-1,-1,-1,-1,-1,-1,-1,-1,-1,-1,-1,-1,-1],"loss_changes":[4.2939697E1,3.348755E0,5.6262207E0,2.1913147E-1,5.411377E0,4.6555603E1,2.9563599E1,0E0,8.574295E-2,4.2460327E0,2.402954E0,2.2855896E1,8.092163E0,1.9153076E1,3.9047241E0,3.2645435E0,0E0,5.269409E0,0E0,3.5118408E0,2.0362793E1,1.5305237E1,3.0969528E1,1.0244843E1,2.4505005E0,8.668457E0,2.4739426E1,7.9830933E0,2.0947723E0,0E0,0E0,0E0,0E0,0E0,0E0,0E0,0E0,0E0,0E0,0E0,0E0,0E0,0E0,0E0,0E0,0E0,0E0,0E0,0E0,0E0,0E0,0E0,0E0],"parents":[2147483647,0,0,1,1,2,2,3,3,4,4,5,5,6,6,8,8,9,9,10,10,11,11,12,12,13,13,14,14,15,15,17,17,19,19,20,20,21,21,22,22,23,23,24,24,25,25,26,26,27,27,28,28],"right_children":[2,4,6,8,10,12,14,-1,16,18,20,22,24,26,28,30,-1,32,-1,34,36,38,40,42,44,46,48,50,52,-1,-1,-1,-1,-1,-1,-1,-1,-1,-1,-1,-1,-1,-1,-1,-1,-1,-1,-1,-1,-1,-1,-1,-1],"split_conditions":[-9.909725E-2,-5.578343E0,3.3949602E-1,-2.0359688E0,-1.4103316E0,1.0616102E0,1.0391674E0,-1.9887274E-2,-3.9248458E-1,-1.4105016E0,-1.3168898E0,4.5708483E-1,1.3537624E0,4.5799345E-1,1.3435625E0,-1.6151776E0,-1.1426212E-1,7.6554847E-1,9.5590554E-2,1.2365047E0,-4.2494375E-1,-4.1461492E-1,-4.159667E-1,-4.053952E-1,-1.5966203E0,1.0585141E0,-1.0832055E0,-4.3211842E-1,-4.9120523E-2,-9.502288E-2,-5.428017E-3,-4.8303142E-2,-6.096313E-2,-7.402979E-2,5.9201755E-2,-1.0561148E-1,-6.0261052E-2,-1.0396453E-1,-4.7401678E-2,-9.7379394E-2,-3.0177424E-2,-1.04881205E-1,-5.8567315E-2,3.2234777E-2,-9.577484E-2,-5.195036E-2,-7.6638885E-2,-7.816912E-2,-3.305189E-2,-1.06736556E-1,-6.3017204E-2,-7.476381E-2,-1.1522857E-1],"split_indices":[0,6,10,0,0,0,0,0,0,0,0,0,0,0,0,1,0,1,0,4,4,4,4,4,1,1,1,4,4,0,0,0,0,0,0,0,0,0,0,0,0,0,0,0,0,0,0,0,0,0,0,0,0],"split_type":[0,0,0,0,0,0,0,0,0,0,0,0,0,0,0,0,0,0,0,0,0,0,0,0,0,0,0,0,0,0,0,0,0,0,0,0,0,0,0,0,0,0,0,0,0,0,0,0,0,0,0,0,0],"sum_hessian":[1.2542536E4,4.7910835E3,7.751453E3,4.0779808E1,4.7503037E3,4.6456357E3,3.1058171E3,1.070652E0,3.9709156E1,1.3975709E3,3.3527327E3,3.4117893E3,1.2338464E3,2.2830798E3,8.227374E2,2.9797037E1,9.912117E0,1.3965663E3,1.0045972E0,2.3653152E2,3.1162012E3,1.5482396E3,1.8635497E3,1.1514413E3,8.240511E1,9.992924E2,1.2837874E3,7.4884296E2,7.389452E1,2.4820738E1,4.976299E0,6.465581E2,7.500082E2,2.3523154E2,1.2999891E0,1.0335811E2,3.012843E3,4.9223747E1,1.4990159E3,7.055824E1,1.7929915E3,5.080507E1,1.1006362E3,1.0763768E0,8.1328735E1,8.2061206E2,1.786803E2,1.3579364E2,1.1479937E3,4.5969124E1,7.028738E2,4.637322E1,2.7521307E1],"tree_param":{"num_deleted":"0","num_feature":"14","num_nodes":"53","size_leaf_vector":"0"}},{"base_weights":[-4.922316E-1,-1.1906472E0,7.589001E-1,8.3312875E-1,-7.5503E-2,-5.0382334E-1,1.6444261E0,-5.688675E-1,1.6082383E0,-6.57743E-1,-3.678775E-1,1.5972666E0,1.682423E0,-7.0423454E-1,-2.600024E-1,-5.670429E-1,-8.083854E-1,-2.8621674E-1,-4.6801603E-1,-7.405247E-1,-4.696031E-1,-3.6495814E-1,3.7990734E-1],"categories":[],"categories_nodes":[],"categories_segments":[],"categories_sizes":[],"default_left":[1,0,1,1,1,1,1,1,0,1,1,0,0,1,1,0,0,0,0,0,0,0,0],"id":15,"left_children":[1,-1,3,5,7,9,11,13,-1,15,17,-1,-1,19,21,-1,-1,-1,-1,-1,-1,-1,-1],"loss_changes":[1.0679982E4,0E0,2.7127246E2,4.3624756E3,2.9883237E2,3.1550842E1,1.7978516E0,1.1444374E1,0E0,9.260529E0,6.4821167E0,0E0,0E0,1.2936783E0,5.936684E0,0E0,0E0,0E0,0E0,0E0,0E0,0E0,0E0],"parents":[2147483647,0,0,2,2,3,3,4,4,5,5,6,6,7,7,9,9,10,10,13,13,14,14],"right_children":[2,-1,4,6,8,10,12,14,-1,16,18,-1,-1,20,22,-1,-1,-1,-1,-1,-1,-1,-1],"split_conditions":[3.178448E-1,-1.19064726E-1,1.8296552E-1,-1.0164249E0,-1.016386E0,-1.1058252E0,-7.8605926E-1,-1.096834E0,1.6082384E-1,4.1922757E-1,-2.3769942E-1,1.5972666E-1,1.682423E-1,1.1140311E0,8.1151223E-1,-5.670429E-2,-8.083854E-2,-2.8621674E-2,-4.6801604E-2,-7.4052475E-2,-4.696031E-2,-3.6495816E-2,3.7990734E-2],"split_indices":[2,0,5,1,1,1,1,1,0,10,13,0,0,10,13,0,0,0,0,0,0,0,0],"split_type":[0,0,0,0,0,0,0,0,0,0,0,0,0,0,0,0,0,0,0,0,0,0,0],"sum_hessian":[1.2220284E4,7.842459E3,4.3778247E3,4.0201897E3,3.5763504E2,1.5183883E3,2.5018013E3,2.7710175E2,8.0533325E1,7.103185E2,8.080699E2,1.1355083E3,1.3662931E3,1.9177289E2,8.532885E1,4.463439E2,2.6397458E2,4.472255E2,3.608444E2,1.6421745E2,2.7555428E1,7.367467E1,1.1654183E1],"tree_param":{"num_deleted":"0","num_feature":"14","num_nodes":"23","size_leaf_vector":"0"}},{"base_weights":[-4.760391E-1,-6.430225E-1,-3.7271932E-1,-1.1535275E0,8.727171E-1,-1.1820904E0,6.531267E-1,1.6249682E0,3.1043E-2,1.5024925E0,1.9329056E-1,1.5926682E0,-8.0626786E-1,3.9067176E-1,-8.036104E-2,-3.585666E-1,-8.199063E-1,3.371465E-1,7.163079E-1,-1.619614E-1,4.1549352E-1],"categories":[],"categories_nodes":[],"categories_segments":[],"categories_sizes":[],"default_left":[1,1,1,0,1,0,1,0,1,0,1,0,1,1,1,0,0,0,0,0,0],"id":16,"left_children":[1,3,5,-1,7,-1,9,-1,11,-1,13,-1,15,17,19,-1,-1,-1,-1,-1,-1],"loss_changes":[1.9708594E2,3.3827961E3,5.869239E3,0E0,6.974773E2,0E0,1.2174163E3,0E0,6.8246704E2,0E0,1.0934719E2,0E0,1.7807465E0,2.0255035E1,3.4415554E1,0E0,0E0,0E0,0E0,0E0,0E0],"parents":[2147483647,0,0,1,1,2,2,4,4,6,6,8,8,10,10,12,12,13,13,14,14],"right_children":[2,4,6,-1,8,-1,10,-1,12,-1,14,-1,16,18,20,-1,-1,-1,-1,-1,-1],"split_conditions":[-4.9354923E-1,3.178448E-1,3.178448E-1,-1.1535275E-1,-6.4334154E-1,-1.1820904E-1,1.2499373E0,1.6249682E-1,1.2499373E0,1.5024926E-1,-2.3769942E-1,1.5926681E-1,-1.2974842E0,1.0421578E0,1.0421578E0,-3.585666E-2,-8.199063E-2,3.371465E-2,7.163079E-2,-1.6196141E-2,4.154935E-2],"split_indices":[11,2,2,0,8,0,2,0,2,0,13,0,9,9,9,0,0,0,0,0,0],"split_type":[0,0,0,0,0,0,0,0,0,0,0,0,0,0,0,0,0,0,0,0,0],"sum_hessian":[1.1436379E4,4.3694077E3,7.0669707E3,3.2687302E3,1.1006779E3,3.950196E3,3.1167747E3,5.807228E2,5.19955E2,1.0939205E3,2.0228541E3,1.8116725E2,3.3878778E2,1.1749506E3,8.4790356E2,1.0822255E1,3.279655E2,1.0108338E3,1.6411676E2,7.2866425E2,1.1923934E2],"tree_param":{"num_deleted":"0","num_feature":"14","num_nodes":"21","size_leaf_vector":"0"}},{"base_weights":[-4.5857522E-1,-9.142565E-1,-4.408356E-1,-9.2357796E-1,-6.7706764E-1,-4.1716632E-1,-4.767397E-1,-9.870423E-1,-3.8006267E-1,-4.7467867E-1,-2.600117E-1,-5.4740936E-1,-4.0591368E-1,-4.5782658E-1,-5.0859374E-1,3.1855006E-2,-2.7848613E-1,-5.531383E-1,3.915146E-1,-1.6257632E-1,-4.2403984E-1,-5.8711535E-1,-4.4042927E-1,-5.1268417E-1,9.149955E-3,-1.8097432E-1,2.7061334E-1,-3.054321E-1,-2.3199818E-1,-5.44337E-1,-8.531494E-1,1.0817379E0,-3.8862526E-1,-8.8529617E-1,-1.10818185E-1,7.9886645E-1,-4.260692E-1],"categories":[],"categories_nodes":[],"categories_segments":[],"categories_sizes":[],"default_left":[1,1,1,0,1,1,1,0,0,1,1,1,1,1,1,1,1,1,1,1,1,0,0,0,0,0,0,0,0,0,0,0,0,0,0,0,0],"id":17,"left_children":[1,3,5,-1,7,9,11,-1,-1,13,15,17,19,21,23,25,27,29,31,33,35,-1,-1,-1,-1,-1,-1,-1,-1,-1,-1,-1,-1,-1,-1,-1,-1],"loss_changes":[8.6476074E1,2.63031E-1,8.594238E0,0E0,1.368535E0,5.631079E1,2.0318848E1,0E0,0E0,2.3789062E0,9.040787E0,1.1250916E1,8.988861E0,6.6307373E0,3.1981506E0,5.1615143E0,1.9026184E0,4.92041E0,7.434623E0,5.2879314E0,5.081848E0,0E0,0E0,0E0,0E0,0E0,0E0,0E0,0E0,0E0,0E0,0E0,0E0,0E0,0E0,0E0,0E0],"parents":[2147483647,0,0,1,1,2,2,4,4,5,5,6,6,9,9,10,10,11,11,12,12,13,13,14,14,15,15,16,16,17,17,18,18,19,19,20,20],"right_children":[2,4,6,-1,8,10,12,-1,-1,14,16,18,20,22,24,26,28,30,32,34,36,-1,-1,-1,-1,-1,-1,-1,-1,-1,-1,-1,-1,-1,-1,-1,-1],"split_conditions":[-4.268847E-1,2.9099355E0,-2.3769942E-1,-9.23578E-2,4.335028E-2,7.810538E-1,7.810538E-1,-9.8704234E-2,-3.800627E-2,4.2350245E-1,-1.0725186E0,1.3494307E1,-8.531772E-1,-3.291769E-1,2.0489025E0,-6.5168306E-2,9.577956E-1,1.563318E0,-3.5262877E-1,-1.3537256E0,-4.1433764E-1,-5.8711536E-2,-4.4042926E-2,-5.1268417E-2,9.149955E-4,-1.8097432E-2,2.7061334E-2,-3.0543212E-2,-2.3199817E-2,-5.44337E-2,-8.5314944E-2,1.0817379E-1,-3.8862526E-2,-8.852962E-2,-1.10818185E-2,7.9886645E-2,-4.260692E-2],"split_indices":[4,13,13,0,10,8,8,0,0,9,9,5,9,4,4,4,9,4,9,9,4,0,0,0,0,0,0,0,0,0,0,0,0,0,0,0,0],"split_type":[0,0,0,0,0,0,0,0,0,0,0,0,0,0,0,0,0,0,0,0,0,0,0,0,0,0,0,0,0,0,0,0,0,0,0,0,0],"sum_hessian":[1.074658E4,4.00793E2,1.0345787E4,3.828532E2,1.7939796E1,6.2428774E3,4.102909E3,7.641396E0,1.02984E1,4.568843E3,1.6740347E3,2.0503535E3,2.0525557E3,3.0619082E3,1.5069347E3,9.96113E1,1.5744233E3,2.0383273E3,1.202621E1,1.429862E2,1.9095693E3,3.5926538E2,2.7026428E3,1.4951323E3,1.1802407E1,5.279332E1,4.6817978E1,9.9317554E2,5.812478E2,1.982968E3,5.535926E1,6.175704E0,5.8505054E0,8.479466E0,1.3450674E2,2.5130682E0,1.9070563E3],"tree_param":{"num_deleted":"0","num_feature":"14","num_nodes":"37","size_leaf_vector":"0"}},{"base_weights":[-4.2299023E-1,-5.9705436E-1,-3.1837693E-1,-8.3900267E-1,-5.9005344E-1,-8.9323056E-1,-2.9368663E-1,-6.491889E-1,-4.972338E-1,-3.643606E-1,-2.2170424E-1,-6.4157414E-1,-7.573288E-1,-4.7093132E-1,-6.418163E-1,-3.1390604E-1,-5.7285446E-1,-2.9854366E-1,-3.398201E-2,-6.5381986E-1,-5.7713324E-1,2.7793536E-1,-7.686702E-1,-4.8327783E-1,-4.259205E-1,-7.426559E-1,-5.579873E-1,-3.5308537E-1,-2.6351866E-1,-7.1144307E-1,-4.7022402E-1,-3.8572633E-1,-2.8208455E-1,-2.9456623E-2,-8.718469E-1],"categories":[],"categories_nodes":[],"categories_segments":[],"categories_sizes":[],"default_left":[1,1,1,0,1,0,1,1,1,1,1,1,1,1,1,1,1,1,1,0,0,0,0,0,0,0,0,0,0,0,0,0,0,0,0],"id":18,"left_children":[1,3,5,-1,7,-1,9,11,13,15,17,19,21,23,25,27,29,31,33,-1,-1,-1,-1,-1,-1,-1,-1,-1,-1,-1,-1,-1,-1,-1,-1],"loss_changes":[1.9106677E2,6.1816406E0,9.288135E1,0E0,2.0722778E1,0E0,3.1937317E1,1.4400024E0,5.388397E0,3.3210846E1,4.500232E1,1.3519287E0,1.9550018E0,4.998474E-1,1.5093155E0,4.956665E0,8.444977E0,3.0683136E0,3.4151258E0,0E0,0E0,0E0,0E0,0E0,0E0,0E0,0E0,0E0,0E0,0E0,0E0,0E0,0E0,0E0,0E0],"parents":[2147483647,0,0,1,1,2,2,4,4,6,6,7,7,8,8,9,9,10,10,11,11,12,12,13,13,14,14,15,15,16,16,17,17,18,18],"right_children":[2,4,6,-1,8,-1,10,12,14,16,18,20,22,24,26,28,30,32,34,-1,-1,-1,-1,-1,-1,-1,-1,-1,-1,-1,-1,-1,-1,-1,-1],"split_conditions":[-4.9354923E-1,-4.2896432E-1,-4.2525566E-1,-8.3900265E-2,-6.164105E-1,-8.932306E-2,1.2075713E-1,3.2725725E-1,3.5000376E-2,5.203506E-1,-1.1873141E-1,7.810538E-1,-6.4334154E-1,7.810538E-1,-1.1873141E-1,-2.478267E-1,-1.1873141E-1,3.6647967E-1,4.2366095E0,-6.538199E-2,-5.7713326E-2,2.7793536E-2,-7.686702E-2,-4.8327785E-2,-4.259205E-2,-7.426559E-2,-5.5798728E-2,-3.5308536E-2,-2.6351867E-2,-7.1144305E-2,-4.7022402E-2,-3.8572636E-2,-2.8208455E-2,-2.9456622E-3,-8.718469E-2],"split_indices":[11,4,4,0,11,0,11,4,4,4,7,8,8,8,7,11,7,11,11,0,0,0,0,0,0,0,0,0,0,0,0,0,0,0,0],"split_type":[0,0,0,0,0,0,0,0,0,0,0,0,0,0,0,0,0,0,0,0,0,0,0,0,0,0,0,0,0,0,0,0,0,0,0],"sum_hessian":[1.0502182E4,3.9406687E3,6.5615127E3,1.07477196E2,3.8331914E3,2.6876602E2,6.2927466E3,2.3377898E3,1.4954017E3,3.1731821E3,3.1195645E3,2.190479E3,1.4731064E2,1.2688326E3,2.2656915E2,2.556924E3,6.162581E2,2.213098E3,9.0646655E2,1.8330068E3,3.5747226E2,1.3415933E0,1.4596906E2,9.88068E2,2.807646E2,9.92819E1,1.2728726E2,1.4350648E3,1.1218593E3,2.5967282E2,3.5658533E2,3.4789383E2,1.865204E3,9.026265E2,3.8400142E0],"tree_param":{"num_deleted":"0","num_feature":"14","num_nodes":"35","size_leaf_vector":"0"}},{"base_weights":[-3.9000484E-1,-3.9091903E-1,3.338509E-1,-5.5783945E-1,-3.7715468E-1,1.2259966E0,-1.3812537E-1,-3.942902E-1,-6.4580595E-1,-3.0680946E-1,-4.3655387E-1,1.8177938E0,-1.2189776E-3,4.487688E-1,-8.069737E-1,-4.3164137E-1,2.4989772E-1,-6.2246066E-1,-9.610434E-1,-2.7832964E-1,-5.1348805E-1,-4.134613E-1,-4.9732217E-1,1.1346196E0,-7.2324805E-2,1.152281E0,-4.5124906E-1,5.8237165E-1,-4.627917E-1,-6.340863E-1,-2.799632E-1,-7.2509277E-1,-1.1387047E0,-1.0345022E-1,-2.9500636E-1,-5.689025E-1,-4.4600862E-1,-4.17717E-1,-2.1909916E-1,-4.606466E-1,-5.406974E-1,-7.203851E-1,3.9009053E-1],"categories":[],"categories_nodes":[],"categories_segments":[],"categories_sizes":[],"default_left":[1,1,1,1,1,1,1,1,1,1,1,0,0,1,0,1,1,1,1,1,1,1,1,0,1,0,0,0,0,0,0,0,0,0,0,0,0,0,0,0,0,0,0],"id":19,"left_children":[1,3,5,7,9,11,13,15,17,19,21,-1,-1,23,-1,25,27,29,31,33,35,37,39,-1,41,-1,-1,-1,-1,-1,-1,-1,-1,-1,-1,-1,-1,-1,-1,-1,-1,-1,-1],"loss_changes":[6.92749E0,2.3359863E1,5.851734E0,1.0958725E1,3.9479492E1,3.4668183E0,4.179478E0,6.728676E0,3.1201172E0,2.5424591E1,7.0041504E0,0E0,0E0,2.1628957E0,0E0,8.608849E0,3.9928534E0,1.7068634E0,5.57621E-1,1.1109558E1,1.7089386E0,2.992859E0,1.9936829E0,0E0,1.5542067E0,0E0,0E0,0E0,0E0,0E0,0E0,0E0,0E0,0E0,0E0,0E0,0E0,0E0,0E0,0E0,0E0,0E0,0E0],"parents":[2147483647,0,0,1,1,2,2,3,3,4,4,5,5,6,6,7,7,8,8,9,9,10,10,13,13,15,15,16,16,17,17,18,18,19,19,20,20,21,21,22,22,24,24],"right_children":[2,4,6,8,10,12,14,16,18,20,22,-1,-1,24,-1,26,28,30,32,34,36,38,40,-1,42,-1,-1,-1,-1,-1,-1,-1,-1,-1,-1,-1,-1,-1,-1,-1,-1,-1,-1],"split_conditions":[1.3494307E1,-1.1058447E0,1.5021336E1,-1.6063097E0,-7.840186E-1,-1.084934E0,-3.5262877E-1,1.336118E0,1.336118E0,1.336118E0,-2.3769942E-1,1.8177938E-1,-1.2189776E-4,1.336118E0,-8.069737E-2,-1.5449462E0,-4.6781078E-4,1.94202E0,-3.5262877E-1,-8.306806E-1,1.0027888E0,1.3139442E-1,-3.3013222E-1,1.13461964E-1,-9.206668E-1,1.1522811E-1,-4.5124907E-2,5.8237165E-2,-4.6279173E-2,-6.3408636E-2,-2.799632E-2,-7.250928E-2,-1.13870464E-1,-1.0345022E-2,-2.9500637E-2,-5.689025E-2,-4.4600863E-2,-4.1771702E-2,-2.1909917E-2,-4.606466E-2,-5.406974E-2,-7.203851E-2,3.9009053E-2],"split_indices":[5,1,5,1,1,1,9,13,13,13,13,0,0,13,0,9,5,9,9,9,9,5,9,0,9,0,0,0,0,0,0,0,0,0,0,0,0,0,0,0,0,0,0],"split_type":[0,0,0,0,0,0,0,0,0,0,0,0,0,0,0,0,0,0,0,0,0,0,0,0,0,0,0,0,0,0,0,0,0,0,0,0,0,0,0,0,0,0,0],"sum_hessian":[1.0270336E4,1.0257841E4,1.2495074E1,7.784187E2,9.479422E3,3.7704532E0,8.724621E0,2.7416574E2,5.0425296E2,4.342662E3,5.1367603E3,2.219105E0,1.5513481E0,4.8222685E0,3.9023523E0,2.5945218E2,1.47135515E1,4.7225418E2,3.1998783E1,3.818789E3,5.23873E2,3.7279185E3,1.4088417E3,1.5736661E0,3.2486026E0,2.4661758E0,2.56986E2,1.0157752E1,4.555799E0,4.5592697E2,1.6327215E1,1.5927242E1,1.6071539E1,3.3308777E2,3.4857012E3,2.835717E2,2.403013E2,3.6469172E3,8.100112E1,7.6967194E2,6.3916974E2,1.1204513E0,2.1281512E0],"tree_param":{"num_deleted":"0","num_feature":"14","num_nodes":"43","size_leaf_vector":"0"}},{"base_weights":[-3.5834804E-1,-3.5617933E-1,-8.872648E-1,-1.1332891E0,7.878935E-1,-1.0968125E0,1.0887742E0,8.540646E-1,1.597497E-2,-3.6737368E-1,1.5460751E0,-4.4079047E-1,1.5081017E0,-4.5405793E-1,-2.7334207E-1,1.490197E0,1.601116E0,-7.9486763E-1,-3.867487E-1],"categories":[],"categories_nodes":[],"categories_segments":[],"categories_sizes":[],"default_left":[1,1,1,0,1,0,0,1,1,1,1,1,0,0,0,0,0,0,0],"id":20,"left_children":[1,3,5,-1,7,-1,-1,9,11,13,15,17,-1,-1,-1,-1,-1,-1,-1],"loss_changes":[1.1239624E1,8.922295E3,1.7950493E1,0E0,2.0734058E2,0E0,0E0,3.160931E3,2.1980861E2,1.0904541E1,4.9555664E0,4.417988E0,0E0,0E0,0E0,0E0,0E0,0E0,0E0],"parents":[2147483647,0,0,1,1,2,2,4,4,7,7,8,8,9,9,10,10,11,11],"right_children":[2,4,6,-1,8,-1,-1,10,12,14,16,18,-1,-1,-1,-1,-1,-1,-1],"split_conditions":[5.532964E0,3.178448E-1,3.178448E-1,-1.1332891E-1,1.80593E-1,-1.0968125E-1,1.0887742E-1,-1.0164249E0,-1.016386E0,-1.1873141E-1,1.2499373E0,5.263122E-1,1.5081017E-1,-4.5405794E-2,-2.7334208E-2,1.490197E-1,1.6011159E-1,-7.9486765E-2,-3.8674872E-2],"split_indices":[13,2,2,0,5,0,0,1,1,7,2,4,0,0,0,0,0,0,0],"split_type":[0,0,0,0,0,0,0,0,0,0,0,0,0,0,0,0,0,0,0],"sum_hessian":[1.0072998E4,1.0033531E4,3.9466927E1,5.9750186E3,4.0585127E3,3.608524E1,3.3816893E0,3.7379763E3,3.2053656E2,1.3520319E3,2.3859443E3,2.4595126E2,7.458529E1,7.015083E2,6.5052356E2,1.1978975E3,1.1880469E3,3.0752838E1,2.1519843E2],"tree_param":{"num_deleted":"0","num_feature":"14","num_nodes":"19","size_leaf_vector":"0"}},{"base_weights":[-3.4754014E-1,-8.159203E-1,-3.3114508E-1,-7.2072506E-1,-9.1616887E-1,-2.7352285E-1,-3.9126045E-1,-8.3676237E-1,-6.0227805E-1,-4.471292E-1,-1.9153543E-1,-5.120405E-1,-2.3276824E-1,-1.0767225E0,1.4234829E0,-1.0801728E0,1.4734402E0,-1.116703E0,9.771292E-2,-1.1404898E0,4.9951053E-1,-1.1038418E0,1.5262643E0,-1.1239401E0,1.4947745E0,-6.1848086E-1,1.4713576E0,-2.0730385E-1,1.393107E0],"categories":[],"categories_nodes":[],"categories_segments":[],"categories_sizes":[],"default_left":[1,1,1,1,0,1,1,1,1,1,1,1,1,0,0,0,0,0,1,0,1,0,0,0,0,0,0,0,0],"id":21,"left_children":[1,3,5,7,-1,9,11,13,15,17,19,21,23,-1,-1,-1,-1,-1,25,-1,27,-1,-1,-1,-1,-1,-1,-1,-1],"loss_changes":[7.196912E1,2.3693542E0,3.1383118E1,1.7985611E0,0E0,6.602838E1,8.500458E1,4.6036926E1,8.736834E1,5.433951E2,2.0706594E3,3.044878E3,2.9652786E3,0E0,0E0,0E0,0E0,0E0,8.095988E2,0E0,1.1544072E3,0E0,0E0,0E0,0E0,0E0,0E0,0E0,0E0],"parents":[2147483647,0,0,1,1,2,2,3,3,5,5,6,6,7,7,8,8,9,9,10,10,11,11,12,12,18,18,20,20],"right_children":[2,4,6,8,-1,10,12,14,16,18,20,22,24,-1,-1,-1,-1,-1,26,-1,28,-1,-1,-1,-1,-1,-1,-1,-1],"split_conditions":[-4.268847E-1,-1.1873141E-1,-7.7847975E-1,4.0783733E-1,-9.161689E-2,-2.478267E-1,-4.9354923E-1,-1.4820147E-1,-1.4820147E-1,-1.4820147E-1,-1.4820147E-1,3.178448E-1,3.178448E-1,-1.0767225E-1,1.4234829E-1,-1.0801728E-1,1.4734402E-1,-1.1167031E-1,-1.0164256E0,-1.1404898E-1,-1.0164167E0,-1.1038418E-1,1.5262644E-1,-1.1239401E-1,1.4947745E-1,-6.1848085E-2,1.4713576E-1,-2.0730386E-2,1.393107E-1],"split_indices":[4,7,1,10,0,11,11,2,2,2,2,2,2,0,0,0,0,0,1,0,1,0,0,0,0,0,0,0,0],"split_type":[0,0,0,0,0,0,0,0,0,0,0,0,0,0,0,0,0,0,0,0,0,0,0,0,0,0,0,0,0],"sum_hessian":[9.406219E3,3.1646848E2,9.08975E3,1.6652603E2,1.4994244E2,4.6439478E3,4.4458027E3,8.105529E1,8.547073E1,1.4882217E3,3.155726E3,2.5218096E3,1.9239929E3,7.374928E1,7.3060074E0,6.986521E1,1.5605523E1,6.672129E2,8.210088E2,1.3294523E3,1.8262737E3,1.9547313E3,5.670781E2,1.2694716E3,6.545214E2,5.40008E2,2.8100076E2,1.0201368E3,8.061369E2],"tree_param":{"num_deleted":"0","num_feature":"14","num_nodes":"29","size_leaf_vector":"0"}},{"base_weights":[-3.3742556E-1,-1.10644E0,6.998516E-1,1.4405771E0,3.906032E-1,-3.229711E-1,1.3685349E0,-4.488016E-1,-1.610886E-1,-2.8791124E-1,-5.0417656E-1,-5.2566808E-2,-4.0711775E-1],"categories":[],"categories_nodes":[],"categories_segments":[],"categories_sizes":[],"default_left":[1,0,1,0,1,1,0,1,1,0,0,0,0],"id":22,"left_children":[1,-1,3,-1,5,7,-1,9,11,-1,-1,-1,-1],"loss_changes":[6.998648E3,0E0,8.5513306E2,0E0,1.8403975E3,3.0995514E1,0E0,7.495407E0,1.7829874E1,0E0,0E0,0E0,0E0],"parents":[2147483647,0,0,2,2,4,4,5,5,7,7,8,8],"right_children":[2,-1,4,-1,6,8,-1,10,12,-1,-1,-1,-1],"split_conditions":[3.178448E-1,-1.10644E-1,-6.4334154E-1,1.4405772E-1,-1.0164249E0,-1.097837E0,1.368535E-1,-1.607991E0,-1.0807345E0,-2.8791124E-2,-5.0417658E-2,-5.256681E-3,-4.0711775E-2],"split_indices":[2,0,8,0,1,1,0,1,1,0,0,0,0],"split_type":[0,0,0,0,0,0,0,0,0,0,0,0,0],"sum_hessian":[8.771771E3,5.0372207E3,3.7345508E3,1.098858E3,2.6356929E3,1.5241935E3,1.1114993E3,8.565944E2,6.675991E2,2.2091908E2,6.356753E2,4.6410098E2,2.0349814E2],"tree_param":{"num_deleted":"0","num_feature":"14","num_nodes":"13","size_leaf_vector":"0"}},{"base_weights":[-3.280427E-1,-4.9796602E-1,-2.3221117E-1,-5.5350363E-1,-4.273495E-1,-7.980761E-1,-2.1055982E-1,-6.0938674E-1,-4.6842957E-1,-4.8039252E-1,-3.478317E-1,-2.7998123E-1,-1.4155044E-1,-6.0392284E-1,-8.3597046E-1,-2.8356445E-1,-4.81515E-1,-3.681334E-1,-5.5156946E-1,7.4233454E-1,-3.6329162E-1,-2.7115753E-1,-7.7548456E-1,-1.3015011E-1,-9.170072E-1,-5.8816445E-1,-8.196224E-1,-1.2722756E-1,-6.0023284E-1,-8.5921526E-1,-4.6828052E-1,-4.3317133E-1,-3.4495164E-2,-5.6561077E-1,-3.5694674E-1,9.7931033E-1,3.1305644E-1,-8.191945E-1,-3.4548068E-1,-2.3477688E-1,-4.9160942E-1,-6.325504E-1,-9.512662E-1,-1.649666E-1,-3.809718E-2,-1.2955852E-1,-9.3828666E-1],"categories":[],"categories_nodes":[],"categories_segments":[],"categories_sizes":[],"default_left":[1,1,1,1,1,0,1,1,1,1,1,1,1,1,0,1,1,1,1,1,1,1,1,1,1,0,0,0,0,0,0,0,0,0,0,0,0,0,0,0,0,0,0,0,0,0,0],"id":23,"left_children":[1,3,5,7,9,-1,11,13,15,17,19,21,23,25,-1,27,29,31,33,35,37,39,41,43,45,-1,-1,-1,-1,-1,-1,-1,-1,-1,-1,-1,-1,-1,-1,-1,-1,-1,-1,-1,-1,-1,-1],"loss_changes":[1.3290479E2,1.1312561E1,6.3847046E1,7.535187E0,5.319504E0,0E0,2.4075882E1,7.2021484E-1,1.4515381E0,6.0107117E0,9.103199E0,1.075679E1,2.2215252E1,2.814392E0,0E0,2.1925173E0,2.6551514E0,6.5980415E0,1.0931854E0,4.7239542E-1,3.9188461E0,1.9662567E1,4.8742485E-1,7.977169E0,4.8901367E-1,0E0,0E0,0E0,0E0,0E0,0E0,0E0,0E0,0E0,0E0,0E0,0E0,0E0,0E0,0E0,0E0,0E0,0E0,0E0,0E0,0E0,0E0],"parents":[2147483647,0,0,1,1,2,2,3,3,4,4,6,6,7,7,8,8,9,9,10,10,11,11,12,12,13,13,15,15,16,16,17,17,18,18,19,19,20,20,21,21,22,22,23,23,24,24],"right_children":[2,4,6,8,10,-1,12,14,16,18,20,22,24,26,-1,28,30,32,34,36,38,40,42,44,46,-1,-1,-1,-1,-1,-1,-1,-1,-1,-1,-1,-1,-1,-1,-1,-1,-1,-1,-1,-1,-1,-1],"split_conditions":[-4.9354923E-1,3.972109E-1,-4.2525566E-1,-6.164105E-1,-6.164105E-1,-7.980761E-2,1.2075713E-1,3.6892247E-1,-1.9693658E0,8.7483835E-1,4.0390086E-1,1.346272E0,1.3161426E0,2.2441971E-1,-8.359705E-2,-2.1757028E-1,-4.2813247E-1,-2.4442285E-2,5.711628E-1,-3.128865E-1,-4.159667E-1,8.39296E-1,-2.478267E-1,5.1827097E-1,-3.814102E-1,-5.8816444E-2,-8.196224E-2,-1.2722756E-2,-6.0023285E-2,-8.5921526E-2,-4.6828054E-2,-4.3317135E-2,-3.4495164E-3,-5.656108E-2,-3.5694674E-2,9.7931035E-2,3.1305645E-2,-8.1919454E-2,-3.454807E-2,-2.3477688E-2,-4.9160942E-2,-6.325504E-2,-9.512662E-2,-1.649666E-2,-3.8097182E-3,-1.2955852E-2,-9.382867E-2],"split_indices":[11,0,4,11,11,0,11,0,0,0,0,0,0,4,0,4,4,4,4,4,4,4,11,4,4,0,0,0,0,0,0,0,0,0,0,0,0,0,0,0,0,0,0,0,0,0,0],"split_type":[0,0,0,0,0,0,0,0,0,0,0,0,0,0,0,0,0,0,0,0,0,0,0,0,0,0,0,0,0,0,0,0,0,0,0,0,0,0,0,0,0,0,0,0,0,0,0],"sum_hessian":[8.167773E3,2.9437954E3,5.2239775E3,1.6440026E3,1.2997928E3,1.9119434E2,5.032783E3,9.8851056E2,6.5549207E2,7.766682E2,5.231246E2,2.507377E3,2.525406E3,9.6881366E2,1.9696869E1,4.4829594E1,6.106625E2,3.0375803E2,4.729102E2,6.6573853E0,5.164672E2,2.465028E3,4.234895E1,2.4899678E3,3.543828E1,9.0632666E2,6.2487003E1,3.0951054E1,1.387854E1,1.8509022E1,5.9215344E2,2.539549E2,4.980313E1,4.3930945E2,3.3600727E1,3.463901E0,3.1934843E0,1.77267E1,4.987405E2,2.1176265E3,3.4740167E2,2.5892973E1,1.6455978E1,1.8060768E3,6.83891E2,1.1189724E0,3.4319305E1],"tree_param":{"num_deleted":"0","num_feature":"14","num_nodes":"47","size_leaf_vector":"0"}},{"base_weights":[-3.008617E-1,-1.0923239E0,6.8997437E-1,5.816191E-1,7.917288E-1,1.3271368E0,1.4508905E-1,1.331609E0,6.340178E-1,2.2705379E-1,-3.228987E-1,9.3784946E-1,5.78139E-1,1.213171E0,-2.5340337E-1,8.984771E-1,-6.161285E-1,1.3787649E0,-1.1716295E-1,1.3742217E0,-1.9304413E-1],"categories":[],"categories_nodes":[],"categories_segments":[],"categories_sizes":[],"default_left":[1,0,1,1,1,0,1,0,1,1,1,1,1,0,0,0,0,0,0,0,0],"id":24,"left_children":[1,-1,3,5,7,-1,9,-1,11,13,15,17,19,-1,-1,-1,-1,-1,-1,-1,-1],"loss_changes":[6.298651E3,0E0,3.8866455E1,5.632035E2,1.5554138E2,0E0,4.1998257E1,0E0,2.3623413E1,4.4124545E2,5.9041954E1,1.0226868E2,7.399617E2,0E0,0E0,0E0,0E0,0E0,0E0,0E0,0E0],"parents":[2147483647,0,0,2,2,3,3,4,4,6,6,8,8,9,9,10,10,11,11,12,12],"right_children":[2,-1,4,6,8,-1,10,-1,12,14,16,18,20,-1,-1,-1,-1,-1,-1,-1,-1],"split_conditions":[3.178448E-1,-1.0923239E-1,-1.1873141E-1,1.2499373E0,1.2499373E0,1.3271368E-1,9.73301E-1,1.331609E-1,-1.1456324E0,1.6515034E-1,3.5797566E-2,2.1596256E-1,1.3617422E-1,1.213171E-1,-2.5340337E-2,8.9847706E-2,-6.1612852E-2,1.378765E-1,-1.1716295E-2,1.3742217E-1,-1.9304413E-2],"split_indices":[2,0,7,2,2,0,0,0,9,4,4,4,4,0,0,0,0,0,0,0,0],"split_type":[0,0,0,0,0,0,0,0,0,0,0,0,0,0,0,0,0,0,0,0,0],"sum_hessian":[8.0298887E3,4.4640127E3,3.5658762E3,1.7301776E3,1.8356986E3,6.3820087E2,1.0919767E3,4.1333072E2,1.4223679E3,9.2966693E2,1.6230977E2,2.1850444E2,1.2038634E3,3.0406396E2,6.2560297E2,3.1023796E1,1.3128596E2,1.538852E2,6.461925E1,5.919839E2,6.118795E2],"tree_param":{"num_deleted":"0","num_feature":"14","num_nodes":"21","size_leaf_vector":"0"}},{"base_weights":[-2.9222935E-1,-2.9017073E-1,-8.2617724E-1,-3.1626022E-1,-2.7342752E-1,-3.435547E-1,-2.8090596E-1,-2.4167025E-1,-2.9342464E-1,-3.481316E-1,6.074285E-2,-2.8792024E-1,-1.6702339E-1,-1.4313382E-1,-3.0301803E-1,-2.961363E-1,6.1382896E-1,-6.641683E-1,-3.3552474E-1,-4.192433E-1,3.031486E-1,-8.4205747E-1,-2.6796806E-1,-8.095921E-1,-1.1458966E-1,-6.7956734E-1,-1.22733854E-1,-3.0620447E-1,7.6910156E-1,-8.0187994E-1,-2.834067E-1,-9.5225014E-2,2.2413952E0],"categories":[],"categories_nodes":[],"categories_segments":[],"categories_sizes":[],"default_left":[1,1,0,1,1,1,1,1,1,1,1,1,1,1,1,1,1,0,0,0,0,0,0,0,0,0,0,0,0,0,0,0,0],"id":25,"left_children":[1,3,-1,5,7,9,11,13,15,17,19,21,23,25,27,29,31,-1,-1,-1,-1,-1,-1,-1,-1,-1,-1,-1,-1,-1,-1,-1,-1],"loss_changes":[7.987976E0,3.1713867E0,0E0,2.7105408E0,2.818573E0,3.0504913E0,9.6865845E-1,1.0618462E1,7.0390167E0,6.227295E0,2.3583622E0,1.301535E1,2.4755719E0,7.3431845E0,3.9458618E0,1.7668106E1,1.0174456E1,0E0,0E0,0E0,0E0,0E0,0E0,0E0,0E0,0E0,0E0,0E0,0E0,0E0,0E0,0E0,0E0],"parents":[2147483647,0,0,1,1,3,3,4,4,5,5,6,6,7,7,8,8,9,9,10,10,11,11,12,12,13,13,14,14,15,15,16,16],"right_children":[2,4,-1,6,8,10,12,14,16,18,20,22,24,26,28,30,32,-1,-1,-1,-1,-1,-1,-1,-1,-1,-1,-1,-1,-1,-1,-1,-1],"split_conditions":[5.532964E0,-2.2893322E-1,-8.261772E-2,-1.1873141E-1,-1.1873141E-1,3.959147E0,8.789286E-1,-2.3769942E-1,1.8607237E0,-4.2761257E-1,-1.8762366E-1,-4.1451094E-1,-3.8556945E-1,-4.1416433E-1,5.0083585E0,-4.2813247E-1,7.215891E-1,-6.641683E-2,-3.3552475E-2,-4.192433E-2,3.031486E-2,-8.420575E-2,-2.6796807E-2,-8.0959216E-2,-1.1458966E-2,-6.795674E-2,-1.2273385E-2,-3.0620446E-2,7.691016E-2,-8.0188E-2,-2.8340671E-2,-9.522501E-3,2.2413953E-1],"split_indices":[13,3,0,7,7,13,12,13,13,4,4,4,4,4,13,4,4,0,0,0,0,0,0,0,0,0,0,0,0,0,0,0,0],"split_type":[0,0,0,0,0,0,0,0,0,0,0,0,0,0,0,0,0,0,0,0,0,0,0,0,0,0,0,0,0,0,0,0,0],"sum_hessian":[7.4842007E3,7.456994E3,2.7206835E1,2.9079324E3,4.5490615E3,1.6360999E3,1.2718325E3,1.762747E3,2.7863147E3,1.6179229E3,1.8176985E1,1.196603E3,7.5229416E1,6.776472E2,1.0850997E3,2.778683E3,7.6314898E0,6.0081406E1,1.5578416E3,5.8546724E0,1.2322312E1,4.01553E1,1.1564478E3,4.5861716E0,7.064324E1,2.3642282E1,6.5400494E2,1.0825966E3,2.5031672E0,6.670041E1,2.7119827E3,5.9714866E0,1.6600032E0],"tree_param":{"num_deleted":"0","num_feature":"14","num_nodes":"33","size_leaf_vector":"0"}},{"base_weights":[-2.669452E-1,-2.6500526E-1,-7.9238456E-1,-3.2373723E-1,-2.5674808E-1,-9.7831553E-1,-6.1547536E-1,-3.2723534E-1,9.04583E-1,-2.1702392E-1,-3.1073862E-1,-7.940597E-1,3.0291545E-1,-8.3327186E-1,-3.1483257E-1,-1.9216968E-1,-2.6976717E-1,-3.0783802E-1,-4.609804E-1,-8.623312E-1,-2.1783563E-1,-3.2092914E-1,7.335984E-1,-4.2982027E-1,-1.600666E-1,2.3276758E0,-2.7395132E-1,-3.609979E-1,-2.587153E-1,-5.1081616E-1,2.4189037E-1],"categories":[],"categories_nodes":[],"categories_segments":[],"categories_sizes":[],"default_left":[1,1,1,1,1,0,1,1,0,1,1,0,0,1,1,1,1,1,1,0,0,0,0,0,0,0,0,0,0,0,0],"id":26,"left_children":[1,3,5,7,9,-1,11,13,-1,15,17,-1,-1,19,21,23,25,27,29,-1,-1,-1,-1,-1,-1,-1,-1,-1,-1,-1,-1],"loss_changes":[7.3154297E0,3.4848633E0,2.7462578E-1,4.1761246E0,1.3777069E1,0E0,2.9229288E0,5.3937683E0,0E0,4.827606E0,1.04953E0,0E0,0E0,1.868658E-1,5.868187E0,1.9259972E1,1.356794E1,6.9184723E0,1.8669729E0,0E0,0E0,0E0,0E0,0E0,0E0,0E0,0E0,0E0,0E0,0E0,0E0],"parents":[2147483647,0,0,1,1,2,2,3,3,4,4,6,6,7,7,9,9,10,10,13,13,14,14,15,15,16,16,17,17,18,18],"right_children":[2,4,6,8,10,-1,12,14,-1,16,18,-1,-1,20,22,24,26,28,30,-1,-1,-1,-1,-1,-1,-1,-1,-1,-1,-1,-1],"split_conditions":[5.532964E0,-1.1400082E0,-1.5180413E-2,1.1123534E1,-7.7847975E-1,-9.7831555E-2,2.2915123E0,-5.578343E0,9.0458296E-2,8.789286E-1,8.789286E-1,-7.940597E-2,3.0291546E-2,8.1151223E-1,3.959147E0,-1.1252728E0,-1.6291195E0,1.0269423E0,3.1722383E0,-8.6233124E-2,-2.1783564E-2,-3.2092914E-2,7.335984E-2,-4.2982027E-2,-1.6006662E-2,2.3276758E-1,-2.7395133E-2,-3.6099788E-2,-2.587153E-2,-5.1081616E-2,2.4189038E-2],"split_indices":[13,9,9,5,1,0,5,6,0,12,12,0,0,13,13,1,1,1,13,0,0,0,0,0,0,0,0,0,0,0,0],"split_type":[0,0,0,0,0,0,0,0,0,0,0,0,0,0,0,0,0,0,0,0,0,0,0,0,0,0,0,0,0,0,0],"sum_hessian":[7.3818257E3,7.356171E3,2.5654818E1,9.020236E2,6.454147E3,1.0299762E1,1.5355056E1,9.001936E2,1.8300564E0,3.7212292E3,2.732918E3,1.2968637E1,2.3864179E0,1.9952225E1,8.802414E2,2.532487E3,1.1887423E3,2.684146E3,4.8771786E1,1.8669527E1,1.2826976E0,8.758423E2,4.399068E0,2.9991406E2,2.232573E3,1.0187465E0,1.1877235E3,1.2860519E3,1.3980942E3,4.579782E1,2.9739676E0],"tree_param":{"num_deleted":"0","num_feature":"14","num_nodes":"31","size_leaf_vector":"0"}},{"base_weights":[-2.4348195E-1,-2.8854057E-1,-2.0780276E-1,-1.0728252E0,1.2454726E0,-1.0843195E0,4.519254E-1,1.3675407E0,-4.383737E-1,-2.0048426E-1,1.3044444E0],"categories":[],"categories_nodes":[],"categories_segments":[],"categories_sizes":[],"default_left":[1,1,1,0,1,0,1,0,0,0,0],"id":27,"left_children":[1,3,5,-1,7,-1,9,-1,-1,-1,-1],"loss_changes":[1.1661743E1,3.874732E3,2.3555696E3,0E0,2.2456592E2,0E0,1.2930767E3,0E0,0E0,0E0,0E0],"parents":[2147483647,0,0,1,1,2,2,4,4,6,6],"right_children":[2,4,6,-1,8,-1,10,-1,-1,-1,-1],"split_conditions":[6.885612E-2,7.838911E-1,-1.4820147E-1,-1.0728252E-1,-6.4334154E-1,-1.0843195E-1,7.810538E-1,1.3675408E-1,-4.3837372E-2,-2.0048426E-2,1.3044445E-1],"split_indices":[8,2,2,0,8,0,8,0,0,0,0],"split_type":[0,0,0,0,0,0,0,0,0,0,0],"sum_hessian":[7.290185E3,3.218505E3,4.0716804E3,2.1298772E3,1.0886274E3,1.7482745E3,2.323406E3,1.01521844E3,7.340909E1,1.316607E3,1.0067989E3],"tree_param":{"num_deleted":"0","num_feature":"14","num_nodes":"11","size_leaf_vector":"0"}},{"base_weights":[-2.367464E-1,-4.0383822E-1,-1.471963E-1,-3.8383108E-1,-4.3332052E-1,-1.9212857E-1,-9.3338475E-2,-3.6639717E-1,-4.8022977E-1,-4.4101164E-1,-3.0331528E-1,-6.0386363E-2,-2.100727E-1,-6.9876224E-2,-1.4660151E-1,-3.4935454E-1,-4.0695682E-1,-5.6525755E-1,-4.483527E-1,-4.8973405E-1,-4.036141E-1,-4.0446532E-1,-5.511729E-2,6.540799E-2,-1.4725658E-1,-4.9749964E-1,-2.037508E-1,-2.5439994E-2,-1.4354111E-1,-1.7105468E-1,-9.617839E-2,-3.9541757E-1,-2.6500037E-1,-9.8955363E-1,-3.903152E-1,2.5184814E-2,-5.796074E-1,-5.529159E-1,-3.0561656E-1,-5.7240087E-1,-3.750841E-1,-2.8415614E-1,-4.3999535E-1,-4.3184444E-1,-7.257882E-2,-2.6640603E-1,2.5034887E-1,-1.7971839E-1,4.0475956E-1,-2.9023954E-1,5.3922825E-2,-1.5443924E-1,-6.409486E-1,-2.9643738E-1,-1.3809961E-1,-1.1462141E-1,1.689065E-1,-3.072429E-1,-6.727965E-2,-2.6594314E-1,1.3758135E-2,2.7260622E-1,-1.4489207E-1],"categories":[],"categories_nodes":[],"categories_segments":[],"categories_sizes":[],"default_left":[1,1,1,1,1,1,1,1,1,1,1,1,1,1,1,1,1,1,1,1,1,1,1,1,1,1,1,1,1,1,1,0,0,0,0,0,0,0,0,0,0,0,0,0,0,0,0,0,0,0,0,0,0,0,0,0,0,0,0,0,0,0,0],"id":28,"left_children":[1,3,5,7,9,11,13,15,17,19,21,23,25,27,29,31,33,35,37,39,41,43,45,47,49,51,53,55,57,59,61,-1,-1,-1,-1,-1,-1,-1,-1,-1,-1,-1,-1,-1,-1,-1,-1,-1,-1,-1,-1,-1,-1,-1,-1,-1,-1,-1,-1,-1,-1,-1,-1],"loss_changes":[1.0155252E2,1.2310486E0,1.0685249E1,2.2105103E0,8.160553E-1,5.6852493E0,2.5060787E0,6.919861E-1,3.2730484E-1,1.4325409E0,1.390193E0,3.1824665E0,3.7525787E0,4.578284E0,7.4164295E-1,3.2243195E0,3.0165749E0,4.7711372E-1,2.2290573E0,3.4231186E0,2.0995026E0,3.304429E-1,1.1928169E0,9.996113E0,4.964751E0,2.113186E0,1.2597588E1,1.5172859E1,6.5515966E0,7.2420225E0,3.6877666E0,0E0,0E0,0E0,0E0,0E0,0E0,0E0,0E0,0E0,0E0,0E0,0E0,0E0,0E0,0E0,0E0,0E0,0E0,0E0,0E0,0E0,0E0,0E0,0E0,0E0,0E0,0E0,0E0,0E0,0E0,0E0,0E0],"parents":[2147483647,0,0,1,1,2,2,3,3,4,4,5,5,6,6,7,7,8,8,9,9,10,10,11,11,12,12,13,13,14,14,15,15,16,16,17,17,18,18,19,19,20,20,21,21,22,22,23,23,24,24,25,25,26,26,27,27,28,28,29,29,30,30],"right_children":[2,4,6,8,10,12,14,16,18,20,22,24,26,28,30,32,34,36,38,40,42,44,46,48,50,52,54,56,58,60,62,-1,-1,-1,-1,-1,-1,-1,-1,-1,-1,-1,-1,-1,-1,-1,-1,-1,-1,-1,-1,-1,-1,-1,-1,-1,-1,-1,-1,-1,-1,-1,-1],"split_conditions":[-4.9354923E-1,-2.0804554E-2,-1.1873141E-1,1.1595919E0,1.6721519E0,-9.020381E-1,3.3949602E-1,-6.4334154E-1,-1.1873141E-1,9.634198E-1,1.6833096E0,5.022404E-1,-1.2693634E0,4.2350245E-1,-3.932137E-3,-6.164105E-1,6.885612E-2,-1.3537256E0,-6.164105E-1,-6.164105E-1,1.0421578E0,7.810538E-1,-6.164105E-1,3.6647967E-1,7.810538E-1,-6.4334154E-1,2.436184E-1,1.2075713E-1,1.0196612E0,1.2075713E-1,5.7933394E-2,-3.954176E-2,-2.6500037E-2,-9.895536E-2,-3.903152E-2,2.5184813E-3,-5.7960745E-2,-5.529159E-2,-3.0561656E-2,-5.7240088E-2,-3.750841E-2,-2.8415615E-2,-4.3999534E-2,-4.3184444E-2,-7.257882E-3,-2.6640603E-2,2.5034888E-2,-1.797184E-2,4.0475957E-2,-2.9023955E-2,5.3922827E-3,-1.5443924E-2,-6.4094864E-2,-2.9643739E-2,-1.3809961E-2,-1.1462141E-2,1.689065E-2,-3.072429E-2,-6.727965E-3,-2.6594315E-2,1.3758135E-3,2.7260622E-2,-1.44892065E-2],"split_indices":[11,9,7,10,10,10,10,8,7,9,9,9,9,9,9,11,8,9,11,11,9,8,11,11,8,8,11,11,9,11,9,0,0,0,0,0,0,0,0,0,0,0,0,0,0,0,0,0,0,0,0,0,0,0,0,0,0,0,0,0,0,0,0],"split_type":[0,0,0,0,0,0,0,0,0,0,0,0,0,0,0,0,0,0,0,0,0,0,0,0,0,0,0,0,0,0,0,0,0,0,0,0,0,0,0,0,0,0,0,0,0,0,0,0,0,0,0,0,0,0,0,0,0,0,0,0,0,0,0],"sum_hessian":[6.7898433E3,2.3679568E3,4.4218867E3,1.419012E3,9.489447E2,2.4092988E3,2.0125879E3,1.2057505E3,2.1326143E2,8.936821E2,5.5262615E1,2.8934567E2,2.1199534E3,1.3987523E3,6.138355E2,8.5577704E2,3.499735E2,5.358861E1,1.5967282E2,3.8282858E2,5.1085352E2,3.8814598E1,1.6448019E1,1.182942E2,1.7105148E2,4.3952267E1,2.076001E3,8.733028E2,5.254495E2,4.1175745E2,2.0207808E2,5.5113354E2,3.046435E2,8.095631E0,3.418779E2,1.2535794E0,5.2335033E1,9.050126E1,6.9171555E1,2.201208E2,1.627078E2,1.21317566E2,3.8953595E2,3.5578365E1,3.236234E0,9.798404E0,6.649615E0,6.8955475E1,4.9338722E1,9.972902E1,7.1322464E1,1.3571773E1,3.0380497E1,8.593095E2,1.2166915E3,5.988936E2,2.7440915E2,1.6602777E2,3.5942178E2,2.7177896E2,1.3997849E2,2.3042187E1,1.790359E2],"tree_param":{"num_deleted":"0","num_feature":"14","num_nodes":"63","size_leaf_vector":"0"}},{"base_weights":[-2.1591637E-1,-6.6917986E-1,-2.0230523E-1,-1.0443178E0,1.4021981E0,-1.0695957E0,6.811368E-1,1.2667814E0,4.4895476E-1,7.451175E-1,3.2221878E-1,8.229059E-1,-5.0916487E-1,4.7763312E-1,-2.4654262E-1],"categories":[],"categories_nodes":[],"categories_segments":[],"categories_sizes":[],"default_left":[1,1,1,0,0,0,1,0,1,1,1,0,0,0,0],"id":29,"left_children":[1,3,5,-1,-1,-1,7,-1,9,11,13,-1,-1,-1,-1],"loss_changes":[4.127292E1,1.5317773E2,4.9945254E3,0E0,0E0,0E0,4.3854602E2,0E0,8.661777E1,6.8007935E1,1.4352338E2,0E0,0E0,0E0,0E0],"parents":[2147483647,0,0,1,1,2,2,6,6,8,8,9,9,10,10],"right_children":[2,4,6,-1,-1,-1,8,-1,10,12,14,-1,-1,-1,-1],"split_conditions":[-4.268847E-1,3.178448E-1,3.178448E-1,-1.04431786E-1,1.4021981E-1,-1.06959574E-1,1.2499373E0,1.2667815E-1,-4.9354923E-1,8.789286E-1,8.789286E-1,8.229059E-2,-5.091649E-2,4.7763314E-2,-2.4654262E-2],"split_indices":[4,2,2,0,0,0,2,0,11,12,12,0,0,0,0],"split_type":[0,0,0,0,0,0,0,0,0,0,0,0,0,0,0],"sum_hessian":[6.71085E3,1.9424211E2,6.5166084E3,1.6487767E2,2.9364428E1,3.2882576E3,3.2283508E3,9.152677E2,2.313083E3,6.9173175E2,1.6213512E3,6.5166077E2,4.0070965E1,1.2735211E3,3.4783014E2],"tree_param":{"num_deleted":"0","num_feature":"14","num_nodes":"15","size_leaf_vector":"0"}},{"base_weights":[-2.0791708E-1,-3.6039752E-1,-1.286218E-1,-4.1552234E-1,-2.9219246E-1,-1.140255E-1,-4.862909E-1,-4.7019535E-1,-3.3586952E-1,-3.3709168E-1,-2.2714196E-1,-1.8366697E-1,-4.6074096E-2,-4.4803014E-1,-9.9638236E-1,-4.6408823E-1,-7.311955E-1,-3.2112902E-1,-5.5098224E-1,-2.2383222E-1,-4.105113E-1,6.777375E-1,-2.4120986E-1,-1.5229554E-1,-3.9728397E-1,-1.07008204E-1,9.29053E-2,-3.31271E-1,-7.56491E-1,-4.377948E-1,-7.609873E-1,-3.0227777E-1,-5.5635333E-1,-4.630492E-1,-8.904829E-1,-2.8533936E-1,5.0379463E-2,-4.2399064E-1,-2.618553E-1,8.527942E-1,3.0262056E-1,-2.01416E-1,-4.7588545E-1,-6.823002E-1,-1.3077344E-1,-2.5195172E-1,-6.3150924E-1,-1.4540203E-1,-1.4034222E-2,-7.655535E-1,1.2042469E-1,-2.6044524E-1,-7.2866267E-1,-5.521859E-1,-9.036158E-1],"categories":[],"categories_nodes":[],"categories_segments":[],"categories_sizes":[],"default_left":[1,1,1,1,1,1,1,1,1,1,1,1,1,1,0,1,0,1,1,1,1,1,1,1,1,1,1,1,1,0,0,0,0,0,0,0,0,0,0,0,0,0,0,0,0,0,0,0,0,0,0,0,0,0,0],"id":30,"left_children":[1,3,5,7,9,11,13,15,17,19,21,23,25,27,-1,29,-1,31,33,35,37,39,41,43,45,47,49,51,53,-1,-1,-1,-1,-1,-1,-1,-1,-1,-1,-1,-1,-1,-1,-1,-1,-1,-1,-1,-1,-1,-1,-1,-1,-1,-1],"loss_changes":[7.652161E1,8.022186E0,2.17025E1,5.048218E0,2.7609024E0,1.8946823E1,2.7368355E0,7.8663635E-1,1.3770485E0,4.6704636E0,5.25268E0,1.3193993E1,1.7190327E1,5.279312E0,0E0,5.0766144E0,0E0,1.8762512E0,4.8421383E-1,3.850398E0,5.828209E-1,1.6105938E-1,3.5873566E0,1.9601238E1,8.441124E0,5.0340824E0,1.4713101E1,2.9951963E0,7.448902E-1,0E0,0E0,0E0,0E0,0E0,0E0,0E0,0E0,0E0,0E0,0E0,0E0,0E0,0E0,0E0,0E0,0E0,0E0,0E0,0E0,0E0,0E0,0E0,0E0,0E0,0E0],"parents":[2147483647,0,0,1,1,2,2,3,3,4,4,5,5,6,6,7,7,8,8,9,9,10,10,11,11,12,12,13,13,15,15,17,17,18,18,19,19,20,20,21,21,22,22,23,23,24,24,25,25,26,26,27,27,28,28],"right_children":[2,4,6,8,10,12,14,16,18,20,22,24,26,28,-1,30,-1,32,34,36,38,40,42,44,46,48,50,52,54,-1,-1,-1,-1,-1,-1,-1,-1,-1,-1,-1,-1,-1,-1,-1,-1,-1,-1,-1,-1,-1,-1,-1,-1,-1,-1],"split_conditions":[-4.9354923E-1,3.972109E-1,1.2928705E0,-6.164105E-1,-6.164105E-1,1.2075713E-1,1.2265086E0,3.6892247E-1,8.789286E-1,8.7483835E-1,4.0390086E-1,8.789286E-1,-1.1873141E-1,1.3472297E0,-9.963824E-2,2.2441971E-1,-7.311955E-2,8.460895E-1,9.109045E-1,-2.4442285E-2,5.711628E-1,-3.128865E-1,4.885323E-1,-4.237306E-1,4.3626434E-1,5.4904944E-1,-4.089306E-1,8.4484166E-1,-2.478267E-1,-4.377948E-2,-7.609873E-2,-3.0227778E-2,-5.5635333E-2,-4.6304923E-2,-8.904829E-2,-2.8533936E-2,5.037946E-3,-4.2399064E-2,-2.6185531E-2,8.527942E-2,3.0262057E-2,-2.01416E-2,-4.7588546E-2,-6.8230025E-2,-1.3077344E-2,-2.5195172E-2,-6.315093E-2,-1.4540203E-2,-1.4034222E-3,-7.655535E-2,1.2042469E-2,-2.6044523E-2,-7.286627E-2,-5.521859E-2,-9.036158E-2],"split_indices":[11,0,0,11,11,11,11,0,12,0,0,12,7,0,0,4,0,4,4,4,4,4,4,4,4,4,4,4,11,0,0,0,0,0,0,0,0,0,0,0,0,0,0,0,0,0,0,0,0,0,0,0,0,0,0],"split_type":[0,0,0,0,0,0,0,0,0,0,0,0,0,0,0,0,0,0,0,0,0,0,0,0,0,0,0,0,0,0,0,0,0,0,0,0,0,0,0,0,0,0,0,0,0,0,0,0,0,0,0,0,0,0,0],"sum_hessian":[6.33165E3,2.164976E3,4.166674E3,1.1944796E3,9.704964E2,4.0045684E3,1.6210562E2,7.053977E2,4.8908194E2,5.7170874E2,3.9878766E2,1.9768489E3,2.0277195E3,1.5254213E2,9.563495E0,6.919842E2,1.3413549E1,4.600501E2,2.903183E1,2.2644153E2,3.4526724E2,5.3827224E0,3.9340494E2,1.7252017E3,2.5164725E2,1.4098257E3,6.1789374E2,1.12160774E2,4.0381355E1,6.379609E2,5.4023315E1,4.2803195E2,3.201813E1,2.493691E1,4.094919E0,1.8492197E2,4.151956E1,3.1486487E2,3.0402365E1,2.8017938E0,2.5809286E0,3.3795612E2,5.544884E1,6.612405E1,1.6590775E3,1.5657265E2,9.50746E1,9.9738794E2,4.124377E2,1.8359398E1,5.9953436E2,9.6599556E1,1.5561219E1,1.8895403E1,2.1485952E1],"tree_param":{"num_deleted":"0","num_feature":"14","num_nodes":"55","size_leaf_vector":"0"}},{"base_weights":[-1.8950276E-1,-1.6021457E-1,-2.2084758E-1,-1.4351146E-1,-3.2570285E-1,-2.148262E-1,-6.555434E-1,-1.3988769E-1,-2.4394526E-1,-3.307989E-1,5.6637156E-1,-2.1725272E-1,6.0309976E-1,-1.4154749E-1,2.0451343E0,-5.587921E-1,-1.4263211E-1,-3.5254347E-1,-1.6897582E-1,-5.293712E-1,-2.1214418E-1,1.1022388E0,-8.021006E-1,-1.1054667E-1,-1.7741229E-1,-8.002588E-1,-2.5531772E-1,-2.3463388E-1,5.404653E-2,2.75424E-1,-3.583798E-1,3.2975236E-1,-2.2433122E-1,-3.922906E-1,-9.963635E-1,-1.9702844E-1,-2.6841098E-1,5.5831975E-1,1.3457391E0],"categories":[],"categories_nodes":[],"categories_segments":[],"categories_sizes":[],"default_left":[1,1,1,1,1,1,0,1,1,1,0,1,1,1,0,1,1,1,1,1,1,1,0,0,0,0,0,0,0,0,0,0,0,0,0,0,0,0,0],"id":31,"left_children":[1,3,5,7,9,11,-1,13,15,17,-1,19,21,23,-1,25,27,29,31,33,35,37,-1,-1,-1,-1,-1,-1,-1,-1,-1,-1,-1,-1,-1,-1,-1,-1,-1],"loss_changes":[5.7173615E0,8.917763E0,7.775116E0,1.0386391E0,1.535429E0,6.054306E0,0E0,1.0615688E1,3.151711E0,9.801674E-1,0E0,4.6334076E0,7.2615147E0,3.1447258E0,0E0,1.5777893E0,1.4237962E0,1.0500145E0,1.0932963E0,2.6346169E0,2.4391937E0,1.9304371E-1,0E0,0E0,0E0,0E0,0E0,0E0,0E0,0E0,0E0,0E0,0E0,0E0,0E0,0E0,0E0,0E0,0E0],"parents":[2147483647,0,0,1,1,2,2,3,3,4,4,5,5,7,7,8,8,9,9,11,11,12,12,13,13,15,15,16,16,17,17,18,18,19,19,20,20,21,21],"right_children":[2,4,6,8,10,12,-1,14,16,18,-1,20,22,24,-1,26,28,30,32,34,36,38,-1,-1,-1,-1,-1,-1,-1,-1,-1,-1,-1,-1,-1,-1,-1,-1,-1],"split_conditions":[-4.6920967E-1,1.194433E0,1.3435625E0,1.1117451E0,6.239762E0,1.3494307E1,-6.555434E-2,1.0908294E0,1.7950311E0,8.789286E-1,5.6637157E-2,-1.2693634E0,-3.5262877E-1,4.0100586E-1,2.0451343E-1,-1.1873141E-1,8.789286E-1,-1.5899394E0,-1.1118876E0,8.789286E-1,8.789286E-1,-6.7320466E-1,-8.021006E-2,-1.1054668E-2,-1.774123E-2,-8.002588E-2,-2.5531773E-2,-2.3463389E-2,5.404653E-3,2.7542401E-2,-3.583798E-2,3.2975238E-2,-2.2433123E-2,-3.922906E-2,-9.963635E-2,-1.9702844E-2,-2.6841098E-2,5.5831976E-2,1.3457392E-1],"split_indices":[10,0,0,5,5,5,0,5,5,12,0,9,9,9,0,7,12,9,9,12,12,9,0,0,0,0,0,0,0,0,0,0,0,0,0,0,0,0,0],"split_type":[0,0,0,0,0,0,0,0,0,0,0,0,0,0,0,0,0,0,0,0,0,0,0,0,0,0,0,0,0,0,0,0,0,0,0,0,0,0,0],"sum_hessian":[6.265382E3,3.2421091E3,3.0232725E3,2.946572E3,2.9553714E2,2.9834402E3,3.983227E1,2.846268E3,1.0030415E2,2.9448404E2,1.0530825E0,2.9753477E3,8.092524E0,2.845042E3,1.2259539E0,2.3319517E1,7.698464E1,2.5856186E2,3.5922207E1,4.626162E1,2.929086E3,6.1305137E0,1.9620099E0,1.5281885E3,1.3168535E3,1.2074866E1,1.124465E1,5.231834E1,2.46663E1,1.9556005E0,2.5660623E2,3.093561E0,3.2828648E1,3.718608E1,9.07554E0,2.3123809E3,6.167051E2,2.9140792E0,3.2164345E0],"tree_param":{"num_deleted":"0","num_feature":"14","num_nodes":"39","size_leaf_vector":"0"}},{"base_weights":[-1.7206429E-1,-3.1578872E-1,-9.842747E-2,-1.0496173E0,8.315706E-1,-1.0660051E0,6.141686E-1,-5.577904E-1,1.3154615E0,-1.0935689E-1,1.2660182E0,-6.9253486E-1,-4.3146074E-1,1.3377472E0,9.5736706E-1,-2.9158148E-1,7.108054E-2,-8.3968014E-1,-2.0306665E-1,-8.246935E-1,-8.641173E-2,3.2533987E0,1.3280929E0,-7.515595E-1,1.2108591E0,-3.767307E-1,-1.1124864E-1,1.7292322E-1,-3.281632E-1],"categories":[],"categories_nodes":[],"categories_segments":[],"categories_sizes":[],"default_left":[1,1,1,0,1,0,1,1,1,1,0,1,1,1,1,1,1,0,0,0,0,0,0,0,0,0,0,0,0],"id":32,"left_children":[1,3,5,-1,7,-1,9,11,13,15,-1,17,19,21,23,25,27,-1,-1,-1,-1,-1,-1,-1,-1,-1,-1,-1,-1],"loss_changes":[6.57489E1,1.7733546E3,2.8353044E3,0E0,5.5320264E2,0E0,1.1170518E3,3.3265228E0,3.5855713E0,3.6955383E1,0E0,7.132839E0,1.5203148E1,6.2491455E0,1.7909988E1,8.542946E0,2.3038946E1,0E0,0E0,0E0,0E0,0E0,0E0,0E0,0E0,0E0,0E0,0E0,0E0],"parents":[2147483647,0,0,1,1,2,2,4,4,6,6,7,7,8,8,9,9,11,11,12,12,13,13,14,14,15,15,16,16],"right_children":[2,4,6,-1,8,-1,10,12,14,16,-1,18,20,22,24,26,28,-1,-1,-1,-1,-1,-1,-1,-1,-1,-1,-1,-1],"split_conditions":[-4.9354923E-1,3.178448E-1,3.178448E-1,-1.0496173E-1,-1.0748947E0,-1.06600516E-1,-1.0164249E0,-6.164105E-1,1.2883785E0,2.436184E-1,1.2660182E-1,-1.0900041E0,-1.1290969E0,-9.5903796E-1,-1.0739819E0,-1.09165E0,8.2026887E-1,-8.396801E-2,-2.0306665E-2,-8.246935E-2,-8.641173E-3,3.2533988E-1,1.328093E-1,-7.515595E-2,1.21085905E-1,-3.767307E-2,-1.1124864E-2,1.7292323E-2,-3.281632E-2],"split_indices":[11,2,2,0,1,0,1,11,0,11,0,1,1,1,1,1,0,0,0,0,0,0,0,0,0,0,0,0,0],"split_type":[0,0,0,0,0,0,0,0,0,0,0,0,0,0,0,0,0,0,0,0,0,0,0,0,0,0,0,0,0],"sum_hessian":[6.214387E3,2.1041726E3,4.110215E3,1.2834124E3,8.2076025E2,1.7430159E3,2.367199E3,2.1197604E2,6.087842E2,1.1223121E3,1.2448867E3,1.0040311E2,1.1157294E2,5.705414E2,3.82428E1,5.580843E2,5.642279E2,7.664606E1,2.3757044E1,5.1495903E1,6.007703E1,1.176114E0,5.693653E2,4.6861444E0,3.3556656E1,3.783477E2,1.7973659E2,4.5000375E2,1.1422414E2],"tree_param":{"num_deleted":"0","num_feature":"14","num_nodes":"29","size_leaf_vector":"0"}},{"base_weights":[-1.6731483E-1,-6.1665225E-1,-1.5489975E-1,-5.5191535E-1,-6.7495275E-1,-1.8818027E-1,-1.2921327E-1,-6.788153E-1,-1.786342E-1,1.4366357E-1,-6.928623E-1,-2.5174877E-1,-1.4403714E-1,-2.8766292E-1,-9.680558E-2,-5.8562016E-1,-1.2325401E-1,-2.398191E-1,-6.455551E-1,-1.5238692E-1,6.4363074E-1,-6.8820304E-1,-2.4869761E-1,-1.2106909E-1,-4.599835E-3,-3.816071E-1,8.5253306E-2,-3.3889043E-1,-1.9643192E-1,-7.426665E-1,1.9257514E-1,-1.1209198E-1,-2.6505676E-1,7.776014E-1,-3.9008588E-1,-7.1993643E-1,3.0590522E-1,4.54725E-2,-3.695552E-1,-1.8331498E-1,-3.610004E-2,-2.4949847E-1,5.0074544E-2],"categories":[],"categories_nodes":[],"categories_segments":[],"categories_sizes":[],"default_left":[1,1,1,1,1,1,1,0,1,0,0,1,1,1,1,0,1,1,1,1,1,1,1,1,1,0,0,0,0,0,0,0,0,0,0,0,0,0,0,0,0,0,0],"id":33,"left_children":[1,3,5,7,9,11,13,-1,15,-1,-1,17,19,21,23,-1,25,27,29,31,33,35,37,39,41,-1,-1,-1,-1,-1,-1,-1,-1,-1,-1,-1,-1,-1,-1,-1,-1,-1,-1],"loss_changes":[3.222133E1,2.1406937E-1,4.7958984E0,3.6271362E0,1.2326965E0,6.850029E0,1.633009E1,0E0,4.1090554E-1,0E0,0E0,4.5638046E0,9.638741E0,8.263069E0,5.919565E0,0E0,1.1170537E0,4.1306267E0,2.498558E0,6.4908295E0,2.43713E0,1.7138023E0,1.7582039E1,1.1073107E1,7.4076924E0,0E0,0E0,0E0,0E0,0E0,0E0,0E0,0E0,0E0,0E0,0E0,0E0,0E0,0E0,0E0,0E0,0E0,0E0],"parents":[2147483647,0,0,1,1,2,2,3,3,4,4,5,5,6,6,8,8,11,11,12,12,13,13,14,14,16,16,17,17,18,18,19,19,20,20,21,21,22,22,23,23,24,24],"right_children":[2,4,6,8,10,12,14,-1,16,-1,-1,18,20,22,24,-1,26,28,30,32,34,36,38,40,42,-1,-1,-1,-1,-1,-1,-1,-1,-1,-1,-1,-1,-1,-1,-1,-1,-1,-1],"split_conditions":[-4.268847E-1,-6.1133915E-1,6.885612E-2,8.789286E-1,-9.5224106E-1,1.0085607E0,-1.1058447E0,-6.788153E-2,-6.7320466E-1,1.4366358E-2,-6.928623E-2,5.4446297E0,1.3700607E-1,4.6031868E-1,7.497334E-1,-5.8562018E-2,-8.244349E-1,-6.45084E-1,9.634198E-1,1.1393762E0,1.1242009E0,1.9082751E0,-1.607991E0,-8.201097E-1,-1.0975332E0,-3.8160708E-2,8.525331E-3,-3.3889044E-2,-1.9643193E-2,-7.426665E-2,1.9257514E-2,-1.1209198E-2,-2.6505677E-2,7.7760145E-2,-3.9008588E-2,-7.199364E-2,3.0590523E-2,4.54725E-3,-3.695552E-2,-1.8331498E-2,-3.6100042E-3,-2.4949847E-2,5.0074547E-3],"split_indices":[4,9,8,12,1,1,1,0,9,0,0,4,4,4,4,0,1,9,9,1,1,9,1,1,1,0,0,0,0,0,0,0,0,0,0,0,0,0,0,0,0,0,0],"split_type":[0,0,0,0,0,0,0,0,0,0,0,0,0,0,0,0,0,0,0,0,0,0,0,0,0,0,0,0,0,0,0,0,0,0,0,0,0,0,0,0,0,0,0],"sum_hessian":[5.7920405E3,1.5442139E2,5.637619E3,7.8131226E1,7.629017E1,2.4530342E3,3.1845852E3,5.7697865E1,2.043336E1,1.4830011E0,7.480717E1,1.00339197E3,1.4496422E3,5.3940704E2,2.6451782E3,1.3006214E0,1.9132738E1,9.754513E2,2.7940653E1,1.4352344E3,1.4407861E1,4.634511E1,4.9306192E2,2.0938723E3,5.5130585E2,8.174213E0,1.0958526E1,2.9500916E2,6.804422E2,2.514149E1,2.799162E0,1.0586254E3,3.7660898E2,1.2974159E1,1.433702E0,4.5178738E1,1.1663766E0,1.4376308E2,3.4929883E2,1.2078665E3,8.860058E2,9.996722E1,4.5133862E2],"tree_param":{"num_deleted":"0","num_feature":"14","num_nodes":"43","size_leaf_vector":"0"}},{"base_weights":[-1.5200345E-1,-3.1016657E-1,-1.3970642E-1,-1.0779178E-1,-5.4541624E-1,-5.830636E-1,-1.2696931E-1,-2.9930326E-1,7.806155E-2,-1.0139592E0,-5.075087E-1,-2.5351676E-1,-6.196855E-1,1.3100146E0,-1.2864879E-1,-1.8370447E-1,-7.778193E-1,6.181427E-1,-3.628592E-1,-1.2973584E-1,-5.6796604E-1,-4.2031693E-1,7.024347E-1,-8.2839584E-1,-5.6328565E-1,1.9840018E0,-3.4558558E-1,-8.96254E-2,-1.7044829E-1,5.1681274E-1,-3.118821E-1,-4.3512863E-1,-1.0600487E0,4.9004138E-1,1.7912325E0,-5.25469E-1,-4.856107E-3,-4.0078738E-1,3.177858E-1,-6.990712E-1,-4.0647748E-1,1.2506622E-1,-4.7387406E-1,-5.023655E-1,-6.1400205E-1,1.8966982E-1,2.7039342E0,-6.389238E-1,-8.458262E-2,-1.7417222E-1,1.6429596E-1],"categories":[],"categories_nodes":[],"categories_segments":[],"categories_sizes":[],"default_left":[1,1,1,1,1,1,1,1,1,0,1,1,1,1,1,1,1,1,1,1,1,1,0,0,1,1,0,1,1,0,0,0,0,0,0,0,0,0,0,0,0,0,0,0,0,0,0,0,0,0,0],"id":34,"left_children":[1,3,5,7,9,11,13,15,17,-1,19,21,23,25,27,29,31,33,35,37,39,41,-1,-1,43,45,-1,47,49,-1,-1,-1,-1,-1,-1,-1,-1,-1,-1,-1,-1,-1,-1,-1,-1,-1,-1,-1,-1,-1,-1],"loss_changes":[1.1134842E1,1.9641293E1,3.0050385E1,7.98499E0,2.8797302E0,1.6374474E0,1.2686302E1,5.962454E0,2.744588E1,0E0,4.0100784E0,2.9364123E0,1.100502E0,7.5419407E0,8.436836E0,8.260843E0,1.5858908E0,6.898733E0,3.6978006E0,3.2767973E0,2.9729767E0,4.8948097E-1,0E0,0E0,2.5024414E-2,5.319746E0,0E0,7.3749027E0,3.1459503E0,0E0,0E0,0E0,0E0,0E0,0E0,0E0,0E0,0E0,0E0,0E0,0E0,0E0,0E0,0E0,0E0,0E0,0E0,0E0,0E0,0E0,0E0],"parents":[2147483647,0,0,1,1,2,2,3,3,4,4,5,5,6,6,7,7,8,8,10,10,11,11,12,12,13,13,14,14,15,15,16,16,17,17,18,18,19,19,20,20,21,21,24,24,25,25,27,27,28,28],"right_children":[2,4,6,8,10,12,14,16,18,-1,20,22,24,26,28,30,32,34,36,38,40,42,-1,-1,44,46,-1,48,50,-1,-1,-1,-1,-1,-1,-1,-1,-1,-1,-1,-1,-1,-1,-1,-1,-1,-1,-1,-1,-1,-1],"split_conditions":[-1.1296585E0,-1.6057699E0,-4.268847E-1,9.680249E-1,3.9210695E-1,-9.2518836E-1,-1.1285021E0,9.6386564E-1,1.3435361E0,-1.0139592E-1,6.4492023E-1,-9.27039E-1,-8.56171E-1,9.4078183E-1,-7.7847975E-1,-1.168129E0,-9.206668E-1,1.2546668E0,6.709646E-1,6.03397E-1,1.1896439E0,-4.3454468E-1,7.024347E-2,-8.2839586E-2,-6.1133915E-1,5.945239E-1,-3.455856E-2,-1.3593497E0,1.5697047E-1,5.1681276E-2,-3.118821E-2,-4.3512862E-2,-1.0600487E-1,4.9004138E-2,1.7912325E-1,-5.25469E-2,-4.8561068E-4,-4.007874E-2,3.177858E-2,-6.990712E-2,-4.064775E-2,1.2506622E-2,-4.7387406E-2,-5.0236553E-2,-6.1400205E-2,1.8966982E-2,2.7039343E-1,-6.389239E-2,-8.458262E-3,-1.7417222E-2,1.6429596E-2],"split_indices":[1,1,4,4,4,1,1,4,4,0,4,1,1,4,1,9,9,4,9,4,4,4,0,0,9,4,0,9,4,0,0,0,0,0,0,0,0,0,0,0,0,0,0,0,0,0,0,0,0,0,0],"split_type":[0,0,0,0,0,0,0,0,0,0,0,0,0,0,0,0,0,0,0,0,0,0,0,0,0,0,0,0,0,0,0,0,0,0,0,0,0,0,0,0,0,0,0,0,0,0,0,0,0,0,0],"sum_hessian":[5.746302E3,4.127925E2,5.333509E3,2.2268486E2,1.9010765E2,1.4769554E2,5.1858135E3,1.09372345E2,1.1331252E2,1.2302216E1,1.7780544E2,1.5563937E1,1.321316E2,5.144445E0,5.180669E3,8.9206055E1,2.0166288E1,5.074875E1,6.256377E1,2.4963692E1,1.5284175E2,1.3728773E1,1.8351634E0,2.5197834E1,1.0693377E2,3.5151043E0,1.6293408E0,2.6809336E3,2.4997354E3,1.3328894E1,7.587716E1,1.0255515E1,9.910773E0,4.703073E1,3.7180183E0,4.270074E1,1.986303E1,1.5612226E1,9.351466E0,8.251924E1,7.032251E1,1.1082317E0,1.2620542E1,5.353425E1,5.339952E1,1.368289E0,2.1468153E0,2.3244717E1,2.657689E3,2.4727068E3,2.7028488E1],"tree_param":{"num_deleted":"0","num_feature":"14","num_nodes":"51","size_leaf_vector":"0"}},{"base_weights":[-1.3794044E-1,-1.211829E-1,-2.6640016E-1,-2.7890393E-1,-4.5673866E-2,-2.7082768E-1,1.2183421E0,-8.2626814E-1,-2.5414366E-1,-1.1674328E-1,1.3881229E-2,-6.158483E-1,-2.3843181E-1,-8.8602614E-1,1.772133E-1,-2.5684503E-1,1.2633587E0,-5.951332E-1,-1.0990909E-1,7.8691795E-2,-8.208034E-3,-6.686276E-1,3.951347E-1,-2.3490104E-1,-4.4554153E-1,8.338806E-1,-6.7979646E-1,-2.8868946E-1,-1.5748969E-1,-7.118378E-1,-3.454114E-1,1.9341588E-1,-1.3271293E-1,6.372986E-1,6.501814E-2,-2.6846084E-1,1.4538718E-2,-4.219648E-1,-7.199369E-1,1.33153E0,-6.253084E-1,1.6711688E0,-2.4257322E-1,-9.038041E-1,9.466711E-2],"categories":[],"categories_nodes":[],"categories_segments":[],"categories_sizes":[],"default_left":[1,1,1,1,1,1,0,1,1,1,1,1,1,0,1,1,0,1,1,1,1,1,1,1,1,0,0,0,0,0,0,0,0,0,0,0,0,0,0,0,0,0,0,0,0],"id":35,"left_children":[1,3,5,7,9,11,-1,13,15,17,19,21,23,-1,25,27,-1,29,31,33,35,37,39,41,43,-1,-1,-1,-1,-1,-1,-1,-1,-1,-1,-1,-1,-1,-1,-1,-1,-1,-1,-1,-1],"loss_changes":[1.2254395E1,6.0139633E1,4.6542053E0,2.1949402E1,1.4463434E1,7.1929207E0,0E0,4.373604E0,6.7428894E0,5.0280666E0,2.6633015E0,3.2381134E0,3.3551407E-1,0E0,3.2599294E0,4.9021606E0,0E0,3.8701248E-1,1.0658468E1,3.5704E0,8.2209E0,3.712902E-1,4.0755563E0,9.091282E0,2.3072667E0,0E0,0E0,0E0,0E0,0E0,0E0,0E0,0E0,0E0,0E0,0E0,0E0,0E0,0E0,0E0,0E0,0E0,0E0,0E0,0E0],"parents":[2147483647,0,0,1,1,2,2,3,3,4,4,5,5,7,7,8,8,9,9,10,10,11,11,12,12,14,14,15,15,17,17,18,18,19,19,20,20,21,21,22,22,23,23,24,24],"right_children":[2,4,6,8,10,12,-1,14,16,18,20,22,24,-1,26,28,-1,30,32,34,36,38,40,42,44,-1,-1,-1,-1,-1,-1,-1,-1,-1,-1,-1,-1,-1,-1,-1,-1,-1,-1,-1,-1],"split_conditions":[1.1396332E0,-4.9354923E-1,1.04991865E1,-1.5996364E0,4.4757955E-2,-1.0780467E0,1.2183421E-1,2.590783E0,4.8953543E0,-5.578343E0,6.885612E-2,1.8956759E0,1.3684144E0,-8.860262E-2,-1.6074567E0,1.0783017E0,1.2633587E-1,-1.6151776E0,-1.6099966E0,-1.6055849E0,-1.097837E0,-1.598779E0,8.789286E-1,-1.0780044E0,-7.809222E-1,8.338806E-2,-6.797965E-2,-2.8868947E-2,-1.5748968E-2,-7.1183786E-2,-3.454114E-2,1.9341588E-2,-1.3271294E-2,6.372986E-2,6.501814E-3,-2.6846085E-2,1.4538718E-3,-4.219648E-2,-7.199369E-2,1.33153E-1,-6.253084E-2,1.6711688E-1,-2.4257323E-2,-9.0380415E-2,9.4667105E-3],"split_indices":[0,11,5,1,0,1,0,5,5,6,8,5,5,0,1,1,0,1,1,1,1,1,12,1,1,0,0,0,0,0,0,0,0,0,0,0,0,0,0,0,0,0,0,0,0],"split_type":[0,0,0,0,0,0,0,0,0,0,0,0,0,0,0,0,0,0,0,0,0,0,0,0,0,0,0,0,0,0,0,0,0,0,0,0,0,0,0,0,0,0,0,0,0],"sum_hessian":[5.706653E3,5.0498457E3,6.568071E2,1.6340328E3,3.4158125E3,6.5566956E2,1.1376227E0,6.931634E1,1.5647166E3,1.5569196E3,1.8588931E3,5.4734066E1,6.009355E2,6.5530975E1,3.7853632E0,1.5627654E3,1.9512032E0,2.0716183E1,1.5362034E3,4.718648E2,1.3870282E3,5.234023E1,2.3938358E0,5.9296094E2,7.97451E0,2.158467E0,1.6268959E0,1.1820123E3,3.8075302E2,1.2857058E1,7.8591247E0,1.0689253E2,1.4293108E3,1.0184682E1,4.616801E2,1.10617386E2,1.2764109E3,1.0601036E1,4.1739193E1,1.0893523E0,1.3044835E0,1.5079361E0,5.91453E2,3.9503431E0,4.024167E0],"tree_param":{"num_deleted":"0","num_feature":"14","num_nodes":"45","size_leaf_vector":"0"}},{"base_weights":[-1.2512083E-1,-1.0512599E0,6.7922205E-1,1.2277527E0,4.6829486E-1,5.2575314E-1,-6.0007002E-2,-1.0650506E-1,1.2970271E0,-1.9149143E-1,1.227275E0,-3.0882722E-1,6.449754E-2,-4.560178E-1,1.044366E-1],"categories":[],"categories_nodes":[],"categories_segments":[],"categories_sizes":[],"default_left":[1,0,1,0,1,1,1,1,0,1,0,0,0,0,0],"id":36,"left_children":[1,-1,3,-1,5,7,9,11,-1,13,-1,-1,-1,-1,-1],"loss_changes":[4.2237515E3,0E0,3.505299E2,0E0,6.661334E1,9.64875E2,3.6803726E1,3.7664913E1,0E0,1.5460785E1,0E0,0E0,0E0,0E0,0E0],"parents":[2147483647,0,0,2,2,4,4,5,5,6,6,7,7,9,9],"right_children":[2,-1,4,-1,6,8,10,12,-1,14,-1,-1,-1,-1,-1],"split_conditions":[3.178448E-1,-1.05125986E-1,1.2499373E0,1.2277527E-1,1.8296552E-1,-1.5381116E-1,-1.5363938E-1,-2.1041408E-3,1.2970272E-1,2.436184E-1,1.22727506E-1,-3.0882722E-2,6.449754E-3,-4.560178E-2,1.044366E-2],"split_indices":[2,0,2,0,5,1,1,11,0,11,0,0,0,0,0],"split_type":[0,0,0,0,0,0,0,0,0,0,0,0,0,0,0],"sum_hessian":[5.668013E3,2.6343984E3,3.0336145E3,8.411987E2,2.1924158E3,1.9773622E3,2.1505367E2,1.0870807E3,8.902815E2,1.9589589E2,1.9157782E1,4.9757162E2,5.895091E2,1.0315022E2,9.274567E1],"tree_param":{"num_deleted":"0","num_feature":"14","num_nodes":"15","size_leaf_vector":"0"}},{"base_weights":[-1.21588685E-1,-1.0460899E0,6.4377356E-1,7.071682E-1,4.0163064E-1,7.530944E-1,1.3100058E-1,3.832283E-2,4.982893E-1,1.1997597E0,6.117137E-1,1.138146E0,9.6828677E-4,1.1539927E0,-2.9655856E-1,1.2015077E0,-1.1741048E-1,-7.2360985E-2,1.260869E0,-1.6645023E-1,1.1912078E0,1.8029179E-1,-4.5614138E-1,-2.4092075E-1,1.2268413E-1],"categories":[],"categories_nodes":[],"categories_segments":[],"categories_sizes":[],"default_left":[1,0,1,1,1,1,1,1,1,0,1,0,1,0,1,0,1,0,0,0,0,0,0,0,0],"id":37,"left_children":[1,-1,3,5,7,9,11,13,15,-1,17,-1,19,-1,21,-1,23,-1,-1,-1,-1,-1,-1,-1,-1],"loss_changes":[3.7431262E3,0E0,4.414392E1,6.056067E1,2.1150124E1,1.3332971E2,2.2320822E1,4.807634E1,2.0626158E2,0E0,7.170778E2,0E0,3.047855E1,0E0,7.6205635E0,0E0,7.5835366E0,0E0,0E0,0E0,0E0,0E0,0E0,0E0,0E0],"parents":[2147483647,0,0,2,2,3,3,4,4,5,5,6,6,7,7,8,8,10,10,12,12,14,14,16,16],"right_children":[2,-1,4,6,8,10,12,14,16,-1,18,-1,20,-1,22,-1,24,-1,-1,-1,-1,-1,-1,-1,-1],"split_conditions":[3.178448E-1,-1.0460899E-1,8.789286E-1,1.8296552E-1,-6.5070814E-1,1.2499373E0,1.2499373E0,1.2499373E0,1.2499373E0,1.1997598E-1,-1.5381116E-1,1.1381461E-1,-1.5363938E-1,1.15399264E-1,-3.0507082E-1,1.2015077E-1,-1.0913495E0,-7.2360984E-3,1.260869E-1,-1.6645024E-2,1.1912078E-1,1.802918E-2,-4.561414E-2,-2.4092076E-2,1.2268413E-2],"split_indices":[2,0,12,5,9,2,2,2,2,0,1,0,1,0,0,0,1,0,0,0,0,0,0,0,0],"split_type":[0,0,0,0,0,0,0,0,0,0,0,0,0,0,0,0,0,0,0,0,0,0,0,0,0],"sum_hessian":[5.2881006E3,2.394887E3,2.8932139E3,2.2913914E3,6.0182245E2,2.1219448E3,1.6944655E2,1.2676213E2,4.750603E2,5.0836768E2,1.6135771E3,1.8489113E1,1.5095743E2,2.8700237E1,9.806189E1,2.2132436E2,2.5373596E2,7.860902E2,8.2748694E2,1.3309631E2,1.7861113E1,2.455605E1,7.350584E1,1.6754398E2,8.619198E1],"tree_param":{"num_deleted":"0","num_feature":"14","num_nodes":"25","size_leaf_vector":"0"}},{"base_weights":[-1.17947765E-1,-1.9991218E-1,-1.4876498E-2,-2.9797947E-1,-1.4947446E-1,-5.8759253E-2,2.294271E-2,-3.5109216E-1,-2.1312544E-1,-1.3853249E-1,-4.4138002E-1,-6.883234E-2,8.0481774E-1,4.2816777E-2,-5.4260516E-1,-3.5400918E-1,6.037284E-1,-3.0689001E-2,-2.89257E-1,-8.7308586E-2,-2.6029935E-1,-2.2075203E-1,-7.898439E-1,4.0513277E-3,-1.8370195E-1,1.4641819E0,2.2634274E-1,1.284019E-1,-4.493515E-2,-3.6104533E-1,-6.910807E-1,-3.3510873E-1,-4.1276497E-1,-4.787601E-2,5.4182565E-1,-2.9783863E-1,9.387003E-1,-1.18079655E-1,-2.971685E-2,2.2737156E-1,-2.7264282E-1,-3.8609946E-1,-5.2183058E-2,-3.1818157E-1,-8.599374E-1,7.572934E-2,-8.109876E-2,-2.0867613E-1,1.803804E-1,1.0362288E0,-1.7303841E-1,-2.4337875E-2,1.5851705E-1,-5.100705E-2,6.002399E-1,1.4195715E-1,-4.6586087E-1,-2.4884695E-1,-8.0244225E-1],"categories":[],"categories_nodes":[],"categories_segments":[],"categories_sizes":[],"default_left":[1,1,1,1,1,1,1,1,1,1,1,1,1,1,1,1,0,1,1,1,1,1,1,1,1,0,1,1,1,1,1,0,0,0,0,0,0,0,0,0,0,0,0,0,0,0,0,0,0,0,0,0,0,0,0,0,0,0,0],"id":38,"left_children":[1,3,5,7,9,11,13,15,17,19,21,23,25,27,29,31,-1,33,35,37,39,41,43,45,47,-1,49,51,53,55,57,-1,-1,-1,-1,-1,-1,-1,-1,-1,-1,-1,-1,-1,-1,-1,-1,-1,-1,-1,-1,-1,-1,-1,-1,-1,-1,-1,-1],"loss_changes":[4.1711555E1,1.3559677E1,3.6330903E0,4.1306076E0,5.746414E0,8.869386E0,1.3242027E1,1.8078842E0,5.015772E0,1.0917789E1,4.8411074E0,8.393547E0,4.1546307E0,8.545521E0,8.2874775E-1,4.960556E-1,0E0,1.0850567E0,2.9681263E0,2.1871452E0,3.1853867E0,1.1319165E0,5.4970074E-1,3.7554636E0,3.5762262E0,0E0,2.5883064E0,2.652897E0,2.2328954E0,1.1252522E0,8.301029E-1,0E0,0E0,0E0,0E0,0E0,0E0,0E0,0E0,0E0,0E0,0E0,0E0,0E0,0E0,0E0,0E0,0E0,0E0,0E0,0E0,0E0,0E0,0E0,0E0,0E0,0E0,0E0,0E0],"parents":[2147483647,0,0,1,1,2,2,3,3,4,4,5,5,6,6,7,7,8,8,9,9,10,10,11,11,12,12,13,13,14,14,15,15,17,17,18,18,19,19,20,20,21,21,22,22,23,23,24,24,26,26,27,27,28,28,29,29,30,30],"right_children":[2,4,6,8,10,12,14,16,18,20,22,24,26,28,30,32,-1,34,36,38,40,42,44,46,48,-1,50,52,54,56,58,-1,-1,-1,-1,-1,-1,-1,-1,-1,-1,-1,-1,-1,-1,-1,-1,-1,-1,-1,-1,-1,-1,-1,-1,-1,-1,-1,-1],"split_conditions":[-1.24965414E-1,-6.164105E-1,-2.2893322E-1,5.767311E-1,5.616324E-1,5.5034685E0,1.2810736E0,3.696844E0,8.7483835E-1,-2.3769942E-1,-2.3769942E-1,2.869064E-1,5.392448E-1,-2.3769942E-1,1.320361E0,9.317875E-1,6.037284E-2,1.4088097E0,3.1628518E0,-3.7068796E-1,-1.3747323E0,1.8994532E0,-7.368799E-1,-4.77715E-2,1.6607617E0,1.464182E-1,7.715345E0,-2.1041408E-3,1.3494307E1,-2.1041408E-3,-2.1041408E-3,-3.3510875E-2,-4.1276496E-2,-4.787601E-3,5.4182567E-2,-2.9783864E-2,9.387004E-2,-1.1807966E-2,-2.971685E-3,2.2737157E-2,-2.7264282E-2,-3.8609948E-2,-5.218306E-3,-3.181816E-2,-8.5993744E-2,7.572934E-3,-8.109876E-3,-2.0867614E-2,1.803804E-2,1.03622876E-1,-1.7303841E-2,-2.4337876E-3,1.5851704E-2,-5.100705E-3,6.002399E-2,1.4195715E-2,-4.658609E-2,-2.4884695E-2,-8.024423E-2],"split_indices":[11,11,3,0,5,5,0,13,0,13,13,13,0,13,0,10,0,5,5,11,10,5,10,10,10,0,5,11,5,11,11,0,0,0,0,0,0,0,0,0,0,0,0,0,0,0,0,0,0,0,0,0,0,0,0,0,0,0,0],"split_type":[0,0,0,0,0,0,0,0,0,0,0,0,0,0,0,0,0,0,0,0,0,0,0,0,0,0,0,0,0,0,0,0,0,0,0,0,0,0,0,0,0,0,0,0,0,0,0,0,0,0,0,0,0,0,0,0,0,0,0],"sum_hessian":[4.9366963E3,2.749387E3,2.187309E3,9.3212506E2,1.817262E3,1.01223224E3,1.1750769E3,5.7135767E2,3.6076736E2,1.7530251E3,6.423684E1,1.00147095E3,1.0761235E1,1.136078E3,3.8998928E1,5.702448E2,1.1128957E0,1.0663578E2,